#include"pch.h"

typedef double dtype;


dtype features_0_weight[6][1][1][1] = {
	{
		{
			{
-0.14525294,
			},
		},
	},
	{
		{
			{
-0.09046948,
			},
		},
	},
	{
		{
			{
0.59245324,
			},
		},
	},
	{
		{
			{
0.55471325,
			},
		},
	},
	{
		{
			{
0.44637382,
			},
		},
	},
	{
		{
			{
0.1448785,
			},
		},
	},
};

dtype features_0_bias[6] = {
-0.75772107, 0.73074484, -0.49990106, -0.023377538, -0.21348011, -0.4616351,
};

dtype features_3_weight[16][6][5][5] = {
	{
		{
			{
0.07996425, 0.0040077716, 0.022664793, 0.04763809, -0.05968688,
			},
			{
-0.016388893, -0.07382302, 0.07321939, -0.0035272986, 0.06644085,
			},
			{
0.016538054, -0.027606223, 0.053118065, 0.0055202767, -0.012028493,
			},
			{
-0.013294689, 0.033482403, -0.04898865, -0.0051352233, 0.031502083,
			},
			{
0.00965815, 0.0322714, -0.036735266, 0.038135514, 0.06702873,
			},
		},
		{
			{
-0.03989755, 0.026107222, 0.02953928, -0.04936757, -0.025713593,
			},
			{
-0.0367563, 0.012600772, 0.06597425, 0.017780773, 0.026676975,
			},
			{
-0.06306848, -0.0446809, 0.029239506, -0.06429197, -0.009145103,
			},
			{
-0.070014335, -0.014291696, 0.0397138, -0.017680474, -0.005230576,
			},
			{
0.04115513, 0.027516276, 0.021333136, 0.045609266, 0.08161013,
			},
		},
		{
			{
0.08025578, 0.03207875, -0.02162803, 0.0052156895, -0.06975291,
			},
			{
0.06621897, -0.077141754, 0.035403967, -0.06201358, 0.07932344,
			},
			{
0.050813705, -0.008087896, -0.011966966, 0.01014553, -0.050674915,
			},
			{
-0.07051072, 0.001994431, -0.028790914, 0.05608864, -0.03689573,
			},
			{
-0.0045693815, -0.06799585, -0.052648425, 0.053878486, 0.04644169,
			},
		},
		{
			{
0.01827249, -0.026505698, 0.056462348, -0.054315913, 0.019614376,
			},
			{
-0.0066093206, -0.053170495, -0.041235834, -0.06480236, 0.04059267,
			},
			{
0.043655664, -0.05605465, -0.05060996, 0.0533607, 0.006026946,
			},
			{
0.041242518, 0.06939156, -0.052364834, -0.017249472, -0.06532731,
			},
			{
0.080350354, 0.033257872, 0.06319161, -0.03210142, -0.013914533,
			},
		},
		{
			{
0.043122575, 0.035497136, -0.06087763, -0.07780424, 0.056729347,
			},
			{
-0.025207251, -0.022907533, -0.08105031, -0.004054658, 0.039737202,
			},
			{
-0.010104075, 0.039228342, 0.05895692, -0.032921486, -0.0773472,
			},
			{
-0.057604518, -0.026946202, 0.048631296, -0.067592286, 0.020786725,
			},
			{
-0.057219543, 0.07641804, 0.016095847, 0.069250315, -0.015276432,
			},
		},
		{
			{
0.081140965, 0.05116725, 0.067687005, 0.063815, 0.022520296,
			},
			{
-0.012901686, -0.05462046, -0.035664357, 0.065777704, -0.021783706,
			},
			{
-0.0054255202, 0.06623429, -0.021233894, 0.052128077, -0.07133198,
			},
			{
-0.011126801, 0.03375694, -0.013521336, -0.03379541, -0.05127445,
			},
			{
0.021827854, -0.013532616, -0.06726237, 0.06861995, 0.06470367,
			},
		},
	},
	{
		{
			{
0.019694522, -0.014987677, -0.03146315, -0.049092874, -0.051462002,
			},
			{
0.076277345, -0.06727207, -0.043298397, 0.054772705, -0.0626162,
			},
			{
-0.06302072, 0.05199465, 0.0005634576, 0.020545341, 0.024628133,
			},
			{
-0.021500036, 0.0009780824, 0.018282108, 0.033094056, -0.02213297,
			},
			{
-0.030368846, -0.061023403, 0.07419208, -0.07845318, -0.04139846,
			},
		},
		{
			{
0.041405663, -0.017718747, 0.070028126, -0.06802148, -0.035441414,
			},
			{
0.023817524, -0.023726579, -0.035906155, 0.027524337, 0.0072418153,
			},
			{
-0.02532458, 0.062272668, 0.018846653, -0.0042818263, 0.07529254,
			},
			{
0.00041044503, 0.042205013, 0.0346355, -0.034852438, 0.07959841,
			},
			{
0.025587022, -0.013460889, -0.03322941, -0.067807496, -0.039475627,
			},
		},
		{
			{
0.07901186, -0.0113441795, 0.00286486, 0.06271222, -0.006396048,
			},
			{
-0.042518754, 0.027634867, -0.043570504, 0.055434287, -0.049236123,
			},
			{
0.05674866, -0.06661613, -0.039264373, -0.03930799, -0.026639882,
			},
			{
-0.016863406, 0.06836595, 0.057476148, -0.026441585, 0.05954179,
			},
			{
-0.037970338, -0.007432878, -0.06591159, -0.0077747554, -0.015940249,
			},
		},
		{
			{
0.03823439, 0.056359336, -0.057180017, -0.0523986, -0.039248664,
			},
			{
0.021126613, 0.0053584874, 0.0071760714, -0.07777968, 0.055138946,
			},
			{
-0.006731309, 0.06510191, 0.07735151, 0.062077805, -0.07675421,
			},
			{
0.036731787, 0.03654369, 0.055527136, 0.022792734, -0.009295881,
			},
			{
-0.074809596, 0.032750756, -0.05480969, 0.066907406, -0.059108473,
			},
		},
		{
			{
-0.0637761, 0.007567376, -0.07660558, -0.07965306, -0.016436651,
			},
			{
0.07468133, 0.07227212, 0.016208544, 0.016908944, 0.008677609,
			},
			{
-0.008452982, 0.029937617, 0.052619472, 0.016683377, -0.004221894,
			},
			{
-0.078705564, -0.057750568, -0.0038005114, -0.029798906, 0.02892942,
			},
			{
-0.017256655, 0.03356804, -0.06769599, 0.06530474, -0.0043339804,
			},
		},
		{
			{
-0.063693546, 0.080915526, -0.075229354, -0.0017933697, -0.050349087,
			},
			{
-0.043679003, -0.04781664, -0.070514955, -0.06184327, -0.017944992,
			},
			{
-0.049661268, -0.044317476, -0.08082492, 0.075557336, 0.009613268,
			},
			{
-0.034625884, 0.020622946, -0.037295297, -0.044470515, 0.01996205,
			},
			{
0.061594754, 0.043322876, -0.024889138, -0.04579961, 0.015448198,
			},
		},
	},
	{
		{
			{
-0.07759024, 0.041519172, -0.04409533, 0.048852906, -0.03365851,
			},
			{
-0.035337947, -0.023252893, 0.070115656, 0.0466246, 0.042668104,
			},
			{
-0.028350353, 0.045319542, 0.033134833, 0.062613875, -0.0650083,
			},
			{
0.055435583, 2.7425587e-05, -0.037639927, -0.0013420507, -0.079005994,
			},
			{
-0.0027026907, 0.04559098, -0.04153717, 0.0015435293, -0.07988234,
			},
		},
		{
			{
0.05498083, -0.06523496, 0.008244686, 0.057894543, 0.004500337,
			},
			{
-0.061416555, 0.00093818456, 0.07299425, 0.068484515, 0.07486442,
			},
			{
-0.041709207, -0.031007491, 0.040285416, -0.050933022, 0.032517582,
			},
			{
0.017789684, -0.026626695, 0.0044765174, -0.01748027, 0.064260036,
			},
			{
0.06279646, 0.0719828, 0.04471761, 0.047639042, 0.05935511,
			},
		},
		{
			{
0.037366115, 0.0077856556, -0.034543935, 0.057212025, 0.04683253,
			},
			{
-0.07874861, -0.073253185, -0.021958701, -0.04309608, -0.06809112,
			},
			{
0.042538524, 0.047234744, -0.057744466, 0.053064585, 0.0094543025,
			},
			{
0.060119122, -0.07333893, 0.07872605, 0.0019472465, 0.033847854,
			},
			{
-0.04738629, 0.048155934, -0.068515085, -0.079202294, 0.07991511,
			},
		},
		{
			{
-0.048384704, -0.004832387, 0.039667517, -0.015325703, -0.07453923,
			},
			{
0.0013410002, -0.024397552, 0.04455121, -0.07969596, -0.016891107,
			},
			{
0.012686938, 0.053478792, 0.05531028, 0.0065975785, -0.038543303,
			},
			{
0.017845564, -0.072629906, -0.0695116, 0.05017747, -0.065957695,
			},
			{
-0.0082632825, 0.06985606, -0.060586765, -0.01713407, 0.035132885,
			},
		},
		{
			{
-0.067932434, 0.07130492, -0.05864562, -0.035996042, -0.047846835,
			},
			{
0.036922097, 0.053489283, -0.060140625, 0.014428675, 0.057044998,
			},
			{
-0.0040699244, 0.07756294, -0.003737554, 0.074739695, -0.03247633,
			},
			{
-0.04810515, 0.028817043, -0.05250194, 0.015820488, -0.06056024,
			},
			{
0.009284496, -0.043535337, 0.027024984, -0.05507655, -0.046241906,
			},
		},
		{
			{
0.055571735, -0.07269033, 0.079182595, -0.074792065, -0.05687091,
			},
			{
0.07867956, -0.010881551, 0.053562626, 0.06659615, -0.04105594,
			},
			{
-0.07870507, 0.078825444, 0.06795673, -0.06308617, 0.051501334,
			},
			{
0.026174814, 0.07630853, 0.020941831, -0.07672427, 0.042926274,
			},
			{
-0.07399827, -0.06102618, 0.026016898, 0.016083367, 0.07546194,
			},
		},
	},
	{
		{
			{
0.004979603, -0.05004783, 0.014659345, -0.0780516, 0.027593583,
			},
			{
-0.029137492, -0.040660784, 0.052109227, -0.054005254, 0.056630686,
			},
			{
-0.02070978, -0.047988184, -0.042172372, -0.022307731, -0.030036341,
			},
			{
-0.03303456, 0.08055225, -0.0010110363, -0.031466488, 0.04868968,
			},
			{
0.06242165, -0.059223853, 0.051603094, 0.04241728, 0.06212747,
			},
		},
		{
			{
-0.053691477, -0.009770304, -0.06654986, -0.046657503, 0.021218225,
			},
			{
0.070686355, -0.029664624, -0.06678104, -0.056597114, 0.053194806,
			},
			{
0.03996318, 0.055753678, 0.0006522089, 0.02785983, -0.06736644,
			},
			{
-0.038030673, -0.045718256, 0.04385163, -0.024001364, -0.053664107,
			},
			{
0.015203871, 0.023389488, 0.08142573, 0.07155101, -0.059899427,
			},
		},
		{
			{
0.0012021363, 0.071991324, 0.04034955, 0.023577943, -0.06961594,
			},
			{
0.06822327, -0.07315411, -0.02963693, -0.06800079, 0.012049399,
			},
			{
-0.049624767, -0.004529856, -0.010356367, 0.050073043, -0.044549257,
			},
			{
-0.032475337, 0.051543266, -0.077720806, -0.042368293, -0.014845878,
			},
			{
0.0018950254, -0.044095155, -0.03013971, 0.06954093, 0.048957363,
			},
		},
		{
			{
0.004658751, 0.003584683, 0.063612774, 0.07039963, -0.074722946,
			},
			{
0.046358243, -0.011988424, 0.047026664, 0.021562524, 0.009025656,
			},
			{
-0.00816188, -0.07902296, -0.07269544, -0.0435714, -0.010613427,
			},
			{
-0.011724569, -0.035996325, -0.01025942, -0.012625143, -0.0055249333,
			},
			{
-0.0556947, -0.029863603, 0.080945805, 0.07513222, 0.024385966,
			},
		},
		{
			{
-0.030781578, 0.03474634, 0.060860112, 0.04002943, -0.011872932,
			},
			{
0.046210915, 0.015026353, 0.05451186, -0.035567872, -0.034857616,
			},
			{
0.06427704, -0.0034427196, -0.056974165, 0.06311941, -0.07899864,
			},
			{
-2.092868e-05, -0.027701631, 0.01946944, -0.013995245, -0.0775743,
			},
			{
0.05000201, 0.03798408, -0.012401938, 0.02856575, -0.006359346,
			},
		},
		{
			{
0.057742193, 0.06730454, -0.038498975, -0.029763613, -0.030832876,
			},
			{
-0.07037673, -0.08055315, 0.06359415, 0.03314518, 0.020552732,
			},
			{
-0.04461495, 0.07564466, 0.007850736, 0.04962507, 0.044069782,
			},
			{
0.06651649, 0.07397057, -0.04601426, -0.0029806122, -0.07286298,
			},
			{
-0.030251216, 0.012942284, -0.036980577, 0.024216011, 0.07586919,
			},
		},
	},
	{
		{
			{
0.02672144, -0.028595079, 0.045169502, -0.077842265, 0.071426734,
			},
			{
-0.07106736, 0.0054738596, 0.036262274, 0.058157295, -0.05549354,
			},
			{
-0.07525813, 0.05817519, 0.046931982, -0.081522696, -0.06172412,
			},
			{
0.056791455, -0.04479234, 0.010278486, 0.037638813, -0.00996013,
			},
			{
0.041127637, -0.005278595, 0.07413989, 0.0003182441, 0.0054089725,
			},
		},
		{
			{
0.061446607, -0.013729773, 0.06449528, 0.050924182, -0.06930154,
			},
			{
0.081577435, 0.043831453, -0.01967622, 0.06508453, -0.0017907247,
			},
			{
-0.05890868, 0.049999908, -0.064786986, 0.02334012, -0.0051483065,
			},
			{
-0.005399175, -0.0041570067, -0.04323334, -0.047111798, -0.0071252435,
			},
			{
0.07320087, 0.07108438, -0.04772658, -0.06522952, -0.03785446,
			},
		},
		{
			{
-0.07377372, -0.02497036, -0.06867612, -0.056163535, -0.0075037703,
			},
			{
-0.034317072, -0.07465923, -0.04918264, -0.079248205, 0.07458338,
			},
			{
0.016849943, 0.04252199, -0.054353826, -0.0805859, 0.027485527,
			},
			{
-0.017902113, 0.05771056, -0.06366124, 0.06295687, -0.06640744,
			},
			{
-0.069813624, -0.053716056, -0.018185996, 0.076287284, 0.06095974,
			},
		},
		{
			{
0.042113774, -0.06951322, 0.028932437, 0.029589608, -0.0070029274,
			},
			{
0.038710758, 0.06945217, -0.044469405, -0.068178795, 0.047703043,
			},
			{
0.048154175, 0.033435524, 0.040851526, 0.011569947, 0.03337937,
			},
			{
-0.0057569966, 0.045046225, 0.056641266, 0.047884718, 0.0127507,
			},
			{
-0.008191608, -0.046598002, -0.049149007, 0.050808012, 0.033042252,
			},
		},
		{
			{
0.06298444, 0.0509796, 0.049786597, 0.06890805, 0.032951735,
			},
			{
-0.04171316, -0.07054185, 0.05265771, 0.016808383, 0.015613474,
			},
			{
0.013371803, -0.073174305, -0.0115754455, 0.028512314, 0.054854915,
			},
			{
-0.044616513, -0.032461263, 0.07096623, 0.06801957, 0.07384668,
			},
			{
0.00044955313, 0.022592612, -0.06714734, 0.07630627, -0.029154222,
			},
		},
		{
			{
0.022990309, 0.050372794, 0.07661244, 0.0785889, 0.035161942,
			},
			{
0.026311718, 0.05461596, 0.016039804, -0.066925764, 0.022864267,
			},
			{
0.05477473, 0.002257079, -6.8970025e-05, 0.028571688, -0.00055603683,
			},
			{
-0.0017064288, -0.07246964, -0.058365814, 0.012017921, 0.077701256,
			},
			{
-0.061300904, 0.009962194, -0.072228804, 0.038507737, 0.076735616,
			},
		},
	},
	{
		{
			{
-0.06109477, 0.039553754, -0.06697189, -0.032553867, -0.005566731,
			},
			{
-0.0055413917, -0.07583274, -0.013273828, -0.054703, -0.055956155,
			},
			{
-0.046019915, -0.0084007755, 0.042699963, -0.044099856, 0.04091382,
			},
			{
-0.042040203, -0.063785635, 0.0113763735, -0.046126943, 0.028451696,
			},
			{
0.07673377, 0.062456027, -0.03286294, -0.0143209845, 0.026693068,
			},
		},
		{
			{
0.04422389, -0.048417058, 0.0727347, -0.04724721, -0.0052191466,
			},
			{
-0.027379707, 0.050801247, 0.026617557, -0.08130766, -0.05835574,
			},
			{
0.040589467, 0.009842128, 0.045554876, -0.00452891, -0.05159682,
			},
			{
-0.07970243, -0.019299246, -0.068772815, -0.08090027, 0.045547962,
			},
			{
-0.010189265, -0.022172555, -0.0046974868, 0.009133518, 0.056673065,
			},
		},
		{
			{
-0.023526821, -0.048658453, 0.07646406, -0.020463455, 0.054799765,
			},
			{
-0.009154722, -0.017578952, 0.03420397, 0.07471794, 0.045431316,
			},
			{
-0.005994253, -0.015423909, 0.08080113, 0.013555646, 0.020410769,
			},
			{
-0.03806066, -0.003267482, -0.008076265, 0.034464695, 0.07594518,
			},
			{
-0.03874644, -0.030599281, -0.0279685, -0.009331763, 0.054963067,
			},
		},
		{
			{
0.078321025, -0.04741991, 0.00065841526, 0.014840223, 0.04720822,
			},
			{
-0.023736827, -0.031868234, 0.033766754, -0.032596935, -0.01805184,
			},
			{
0.07763693, 0.07346852, 0.033873655, 0.018187642, -0.03496369,
			},
			{
0.037439495, 0.02879358, 0.028521843, -0.069799, -0.055621047,
			},
			{
0.034199268, 0.064868495, -0.04438437, -0.040674448, -0.031131301,
			},
		},
		{
			{
0.02685596, -0.060455598, -0.044923555, -0.08116324, 0.0040782243,
			},
			{
-0.046872504, -0.03118392, -0.03065414, 0.044076324, 0.028572388,
			},
			{
-0.0006513223, 0.08082521, -0.020275, -0.017529175, 0.030622698,
			},
			{
-0.022342812, 0.038385697, -0.056571767, 0.05703385, 0.066035405,
			},
			{
0.06938836, -0.0769444, -0.033159487, 0.0024222136, 0.0314703,
			},
		},
		{
			{
-0.07781049, 0.05565904, -0.0032209158, 0.018468454, 0.060934782,
			},
			{
0.072789654, 0.062207595, 0.04289928, 0.019294575, 0.043142773,
			},
			{
0.019223012, -0.07718952, -0.07319645, -0.051558256, 0.040894046,
			},
			{
0.017829426, 0.03619437, 0.07526021, 0.041526534, -0.023199972,
			},
			{
0.018755443, 0.009680927, 0.029778078, 0.005484715, 0.006134443,
			},
		},
	},
	{
		{
			{
-0.06296169, -0.0402564, 0.00055324286, 0.053052455, 0.024155773,
			},
			{
0.03587363, -0.007433191, -0.053313754, -0.0055452734, 0.06261706,
			},
			{
-0.055676274, -0.060463168, -0.05805874, -0.059139833, -0.0004477054,
			},
			{
-0.072456144, 0.002191931, 0.013752505, 0.07846677, 0.06515911,
			},
			{
-6.276369e-05, 0.06708503, 0.07450494, -0.079445705, 0.046925157,
			},
		},
		{
			{
0.037105434, -0.073465966, -0.06494306, -0.0619187, 0.0036969408,
			},
			{
-0.07252339, -0.014284626, -0.0023002028, 0.009036899, 0.059830442,
			},
			{
-0.004260406, -0.012349375, -0.08142998, 0.0064167827, -0.01678586,
			},
			{
0.048555776, 0.05959241, -0.08063719, 0.02807504, -0.0027137846,
			},
			{
-0.027999442, -0.047278754, 0.022035487, 0.038024582, 0.019305892,
			},
		},
		{
			{
-0.052023746, -0.046493735, -0.0041407347, 0.045964554, 0.026637346,
			},
			{
-0.00995899, 0.012273163, -0.07061552, -0.06052553, 0.07576881,
			},
			{
0.03227613, -0.031954717, -0.04704077, -0.021685068, -0.05778929,
			},
			{
-0.008463718, 0.012696631, -0.0040240213, 0.07433824, -0.008200429,
			},
			{
0.064352095, 0.076716945, 0.08112052, 0.057872206, -0.0131845325,
			},
		},
		{
			{
0.04563664, -0.009456456, -0.031255264, -0.03975412, 0.012227617,
			},
			{
-0.06940035, 0.059391767, -0.0007240549, 0.010976389, 0.076186195,
			},
			{
-0.05256034, 0.069142655, 0.07673906, -0.0023786575, -0.06691537,
			},
			{
-0.04337972, 0.0497365, -0.016557261, -0.009173952, -0.037954256,
			},
			{
-0.020972922, 0.002952166, 0.07539263, 0.020738706, 0.026672006,
			},
		},
		{
			{
0.040768795, 0.040467374, -0.004988052, 0.053806067, -0.0398128,
			},
			{
0.048423678, 0.05260846, -0.03413167, 0.025321282, -0.022331957,
			},
			{
0.07021727, 0.015867375, 0.055967823, -0.07345867, 0.01632154,
			},
			{
0.06332083, 0.010215536, -0.06606013, 0.010083459, 0.013479814,
			},
			{
0.044191137, -0.04783058, -0.018141419, -0.06633817, 0.020130761,
			},
		},
		{
			{
0.00802505, -0.008359283, -0.05402624, 0.03794723, -0.04960567,
			},
			{
0.0225854, 0.034054607, 0.048131093, 0.040060878, 0.066830456,
			},
			{
-0.011342965, 0.0013336539, -0.072144024, 0.015865654, 0.00748688,
			},
			{
0.041087933, 0.075443685, -0.06155878, -0.017605491, 0.0003941357,
			},
			{
0.017405145, 0.020618357, -0.055317566, -0.03155588, 0.036339834,
			},
		},
	},
	{
		{
			{
0.0524403, 0.062238455, 0.045986593, -0.03300418, 0.069162786,
			},
			{
-0.017324768, 0.04583624, 0.027891159, -0.016083032, 0.04213369,
			},
			{
-0.063868545, 0.032652378, -0.06388095, 0.014672279, -0.059950296,
			},
			{
0.06978947, -0.044815805, -0.021752317, 0.06541024, 0.02443587,
			},
			{
-0.007402912, -0.009074755, 0.05073324, -0.05643068, -0.0022011101,
			},
		},
		{
			{
-0.02768125, -0.076002285, 0.0485961, 0.04267647, 0.06064178,
			},
			{
-0.004854165, 0.043201856, 0.04374586, 0.011765137, -0.013882019,
			},
			{
-0.008008823, 0.07786715, 0.0003740564, -0.057688907, -0.018791594,
			},
			{
-0.022824332, -0.06971178, -0.069533706, -0.030561682, -0.00014656782,
			},
			{
0.028525464, 0.050937355, -0.041684505, -0.008952156, -0.02592111,
			},
		},
		{
			{
0.05038868, -0.050055277, 0.06653553, -0.004077457, -0.024188176,
			},
			{
0.018541493, -0.054696433, 0.0028931126, -0.060064692, 0.080785856,
			},
			{
-0.0571594, -0.016259916, -0.04800433, 0.0035963804, -0.08090046,
			},
			{
0.013457015, 0.08011754, -0.009049259, 0.023438998, -0.008066125,
			},
			{
-0.0011783913, 0.06420505, 0.08126293, -0.057216235, 0.008208625,
			},
		},
		{
			{
-0.027756467, 0.03528542, -0.07037498, -0.013041168, 0.0752577,
			},
			{
0.01577241, -0.07916602, 0.048537463, -0.07574493, 0.012585305,
			},
			{
0.024331331, 0.07875107, 0.06656952, -0.045957126, -0.011606291,
			},
			{
0.064591914, -0.033585742, -0.017468832, -0.014377974, 0.019198291,
			},
			{
-0.062557854, 0.0749487, -0.010085911, 0.026673377, 0.06193678,
			},
		},
		{
			{
-0.05792523, -0.04561407, 0.042352892, 0.06461015, -0.018790372,
			},
			{
-0.037040845, -0.03996299, -0.029532727, -0.02343085, -0.01793214,
			},
			{
-0.024062127, 0.036853313, -0.02773663, 0.009710677, 0.0285827,
			},
			{
0.047600135, -0.07885691, 0.02172207, 0.0317112, -0.022824965,
			},
			{
-0.0133988485, -0.078198984, -0.0022505447, -0.04613865, 0.012794398,
			},
		},
		{
			{
-0.06644133, -0.05765324, -0.073335364, 0.012290455, -0.052792333,
			},
			{
0.028201312, -0.08099119, -0.0046879873, 0.005831063, -0.042729035,
			},
			{
-0.06120683, 0.038651094, -0.034113068, -0.031323787, 0.013354793,
			},
			{
-0.016392097, 0.038836226, -0.05496367, -0.033391748, -0.016110554,
			},
			{
0.029334716, -0.042536207, 0.032142095, -0.033375587, -0.05225078,
			},
		},
	},
	{
		{
			{
-0.027999539, -0.04794199, -0.051446147, -0.0439325, 0.018400513,
			},
			{
0.07766938, -0.014009215, 0.06697692, -0.03584972, 0.05151595,
			},
			{
-0.050342448, 0.06639944, -0.049718536, -0.018969342, -0.022104263,
			},
			{
-0.07698107, -0.048882965, -0.058833018, 0.024580643, -0.027970027,
			},
			{
-0.06329961, -0.03438831, 0.0058897287, -0.0056401864, -0.0019634664,
			},
		},
		{
			{
-0.010456547, -0.068291955, 0.077790275, 0.08132556, 0.009123594,
			},
			{
-0.05455485, 0.06182909, 0.07782258, 0.039234683, 0.035624646,
			},
			{
-0.016214855, 0.068703964, 0.043031074, 0.005209759, 0.051556647,
			},
			{
0.008677959, 0.0350931, -0.07046069, 0.024917886, -0.014698699,
			},
			{
-0.027853891, 0.07059559, 0.04299525, -0.021918047, -0.07596992,
			},
		},
		{
			{
-0.06653163, 0.02839198, -2.24635e-05, 0.0744233, 0.07323256,
			},
			{
-0.051493295, 0.039180808, -0.052564196, -0.021180369, 0.03869676,
			},
			{
0.036851667, -0.03206673, 0.06147802, -0.018944912, 0.046723723,
			},
			{
-0.008699261, -0.013071373, 0.032147914, 0.05624865, -0.06612091,
			},
			{
-0.00023382902, 0.023163304, 0.011763826, 0.022094123, -0.035875797,
			},
		},
		{
			{
0.07551858, 0.027858414, -0.072685465, 0.03279212, -0.023104273,
			},
			{
-0.07089744, 0.034164697, -0.077739865, 0.03824643, 0.07387982,
			},
			{
-0.042875074, 0.0402499, -0.07847103, -0.004730068, 0.009041384,
			},
			{
0.065332115, -0.0018593967, 0.003850691, 0.0502135, 0.012691446,
			},
			{
0.04104501, -0.050273266, 0.018388413, -0.041652452, 0.02425056,
			},
		},
		{
			{
0.05298288, -0.014128692, -0.08147576, 0.06232156, 0.054750144,
			},
			{
0.0017941296, 0.07709494, 0.042377003, 0.021639638, 0.056533188,
			},
			{
0.0350502, 0.01465629, -0.0810597, -0.014619447, 0.02337756,
			},
			{
-0.08023824, -0.056417927, 0.051698893, 0.06005314, 0.077952996,
			},
			{
-0.058239836, 0.02131068, 0.043272108, 0.004194401, 0.056830466,
			},
		},
		{
			{
0.029788703, -0.06547002, -0.010893218, -0.04132276, -0.0643288,
			},
			{
0.047099695, -0.03787303, 0.014223509, -0.057484183, -0.06580692,
			},
			{
0.007670641, 0.07732259, -0.013389066, -0.027946483, 0.041865878,
			},
			{
-0.026876833, 0.057599783, 0.062748715, -0.0013848469, 0.046526507,
			},
			{
0.044980586, -0.07880256, -0.079269886, 0.07481226, -0.0009027794,
			},
		},
	},
	{
		{
			{
-0.05028763, -0.07821232, -0.046561968, 0.019157387, 0.07004993,
			},
			{
-0.06886486, -0.047038127, -0.0027655214, 0.0068759173, -0.028300408,
			},
			{
0.030668668, -0.043986257, -0.023652643, 0.05283174, 0.04926318,
			},
			{
-0.045646142, -0.005535938, -0.0031007752, -0.07322109, -0.062880054,
			},
			{
0.046121716, 0.017019399, -0.031741634, 0.0022496805, -0.06884121,
			},
		},
		{
			{
0.020389184, 0.05338195, 0.06580852, 0.051420525, -0.07816365,
			},
			{
0.0066799074, 0.0739364, 0.04644662, -0.060500965, -0.023099378,
			},
			{
-0.0623852, 0.07847951, -0.024627104, 0.023758717, -0.04758233,
			},
			{
0.017879106, 0.075370595, 0.051990718, 0.07327978, -0.009518094,
			},
			{
0.06590283, -0.07681691, 0.047950298, -0.024311926, 0.033242725,
			},
		},
		{
			{
-0.026400529, -0.032166302, -0.022000048, 0.068804726, -0.0052706823,
			},
			{
0.04177291, 0.00696107, -0.03849346, 0.081539854, 0.00062774867,
			},
			{
0.059073612, -0.0035671517, -0.028284594, 0.010870792, -0.07076666,
			},
			{
0.01541236, -0.057176404, 0.07903279, 0.010692857, 0.06313537,
			},
			{
0.0016736463, -0.033451635, 0.0029372275, 0.07082541, -0.07029647,
			},
		},
		{
			{
0.017894588, 0.055835858, -0.037083536, 0.009002149, 0.07723148,
			},
			{
0.032398865, 0.045028746, -0.016774297, 0.045087293, 0.0033858046,
			},
			{
0.020895183, -0.03976211, 0.069700465, 0.055426985, 0.023446523,
			},
			{
-0.005236633, -0.007718019, 0.030134141, 0.017952032, -0.026319519,
			},
			{
0.06070754, -0.030521639, 0.07266176, 0.034154356, -0.080216885,
			},
		},
		{
			{
-0.055607952, -0.012126692, 0.054314524, -0.017878056, -0.0800155,
			},
			{
0.03897687, 0.015917055, 0.06352869, 0.056623623, 0.05385013,
			},
			{
0.010398403, -0.070319034, 0.030535102, -0.05244133, -0.029572848,
			},
			{
0.05714929, -0.060925495, 0.024384245, 0.06431569, 0.002595991,
			},
			{
-0.0034310147, 0.036043152, -0.051075645, -0.0008292198, 0.03578247,
			},
		},
		{
			{
0.008475296, 0.07516846, -0.035320524, 0.026802793, -0.018143266,
			},
			{
-0.0359019, 0.04258351, -0.047382805, 0.05116822, 0.030542254,
			},
			{
-0.059974425, 0.0015039295, 0.0004265532, 0.0006653145, -0.055910088,
			},
			{
0.0072604343, 0.036362663, 0.0424743, -0.00827004, -0.02995827,
			},
			{
0.06276366, -0.02072579, 0.027340464, -0.06311776, -0.024505444,
			},
		},
	},
	{
		{
			{
0.029031783, -0.042231295, 0.070238456, 0.010027632, -0.026658375,
			},
			{
-0.05260276, 0.016807571, -0.051062495, -0.014200941, -0.034202218,
			},
			{
0.026248112, 0.051993996, -0.057329208, -0.012734756, 0.08114225,
			},
			{
-0.055743657, -0.03428234, -0.073637344, 0.048370734, -0.059849568,
			},
			{
-0.07424396, 0.07561207, 0.008880399, 0.04768704, -0.057979215,
			},
		},
		{
			{
0.07453039, -0.06652725, 0.0018213615, 0.028229699, -0.074712336,
			},
			{
-0.04290846, -0.030456085, -0.04070365, -0.053134337, -0.019790832,
			},
			{
-0.07209998, -0.06867685, -0.07661162, -0.024861474, -0.010117143,
			},
			{
0.050889283, -0.07047487, -0.011039019, 0.07217866, 0.039367586,
			},
			{
0.05744797, 0.057248816, 0.028576702, -0.07364552, 0.03178805,
			},
		},
		{
			{
-0.012541257, -0.07251733, 0.045391455, 0.04974179, -0.037113428,
			},
			{
0.017370634, 0.042238146, -0.07812861, 0.0809135, -0.030938588,
			},
			{
0.07505886, 0.068084285, 0.034582287, 0.009201981, 0.034000397,
			},
			{
-0.00636784, 0.021497808, 0.026646845, -0.003958039, 0.038323402,
			},
			{
0.019635983, -0.0054010153, -0.024288207, 0.01367145, -0.025539842,
			},
		},
		{
			{
0.031137519, -0.065925084, 0.042508118, 0.052684516, -0.021061145,
			},
			{
-0.06832762, 0.06595452, 0.0714847, 0.040763624, 0.043737486,
			},
			{
0.009058185, -0.05732298, -0.06446975, -0.003936209, -0.057247184,
			},
			{
0.015839025, -0.045827262, -0.05799942, -0.07104992, 0.035403416,
			},
			{
-0.057008132, 0.06874488, 0.05969034, -0.007174261, 0.056545183,
			},
		},
		{
			{
0.07016395, 0.020287283, -0.06987674, -0.07321706, 0.060063034,
			},
			{
0.049433783, -0.04033822, -0.019685585, 0.008309372, -0.0679691,
			},
			{
-0.03429558, -0.0032981634, 0.051430658, 0.040645696, -0.01896587,
			},
			{
0.07653831, 0.014299527, 0.029271781, 0.044610873, -0.040230986,
			},
			{
0.07508822, 0.042443536, 0.077528104, 0.05813907, 0.021714054,
			},
		},
		{
			{
-0.07883477, 0.072038084, -0.058178652, -0.049494155, -0.0047419965,
			},
			{
0.006751135, -0.057748552, 0.0072664693, -0.008547425, -0.060158756,
			},
			{
-0.06844457, 0.003977068, 0.037395723, -0.03809036, 0.06495108,
			},
			{
-0.0021130443, 0.0026054159, 0.039040834, 0.0020100847, 0.06547466,
			},
			{
0.025942706, -0.051065583, -0.002038069, 0.01112432, 0.0663133,
			},
		},
	},
	{
		{
			{
-0.04450308, 0.070234746, 0.0075176805, 0.07499379, 0.044431,
			},
			{
-0.031445358, 0.062906206, -0.04895393, -0.032151904, 0.061578587,
			},
			{
0.031988695, 0.048043862, -0.033871215, 0.045509353, -0.056057192,
			},
			{
-0.03402604, 0.026988, -0.07056855, 0.051266894, -0.052078605,
			},
			{
0.02540034, -0.014121711, 0.052109644, -0.029151928, 0.067445174,
			},
		},
		{
			{
0.061163083, 0.028883263, -0.00021804124, 0.018111058, 0.06342745,
			},
			{
-0.046478525, -0.050561246, -0.043930136, 0.013120472, 0.056531772,
			},
			{
-0.08002957, -0.049289063, 0.016470648, 0.0003841743, 0.039549842,
			},
			{
0.059353337, -0.031232867, 0.07624197, 0.031210355, 0.0019238815,
			},
			{
0.05473338, 0.07489695, -0.066720635, 0.06975189, 0.026113987,
			},
		},
		{
			{
0.06254017, 0.08157474, -0.0378168, 0.03138651, 0.015535019,
			},
			{
-0.014281854, 0.04999365, -0.00890895, 0.05421956, 0.031238757,
			},
			{
0.06680496, -0.051630676, -0.008608915, -0.05310546, 0.056074917,
			},
			{
-0.016597793, 0.060535118, 0.0034083277, -0.011621103, -0.056011647,
			},
			{
0.04572785, 0.072244704, 0.00060293823, 0.06009157, -0.041170154,
			},
		},
		{
			{
0.0048827976, -0.020085443, 0.0368651, 0.05393827, 0.026670553,
			},
			{
0.078342035, -0.047747184, 0.014839701, -0.012219243, 0.03406941,
			},
			{
0.069331214, 0.03657542, 0.004720524, 0.02069562, -0.0033629015,
			},
			{
-0.003667377, -0.044871714, 0.07749687, -0.054386206, -0.03809719,
			},
			{
-0.046836887, -0.039097726, -0.00096841156, 0.02878312, 0.02948831,
			},
		},
		{
			{
0.02680941, 0.03644968, -0.0621852, -0.013359614, 0.072405264,
			},
			{
0.035296194, -0.075600274, -0.043435667, -0.0057458356, 0.018218033,
			},
			{
-0.07101165, 0.061148956, -0.009407982, 0.059185058, -7.007271e-05,
			},
			{
-0.02697771, 0.0061765686, -0.07964433, 0.026631378, -0.0601758,
			},
			{
0.018793322, -0.052435122, -0.07536282, 0.07474393, -0.050353076,
			},
		},
		{
			{
-0.0028629526, 0.012093686, 0.031612925, 0.06951198, -0.024267659,
			},
			{
-0.03368109, 0.03627979, -0.04214027, -0.05080896, -0.029169612,
			},
			{
0.043760985, -0.0646014, 0.02082359, 0.051305592, 0.023605175,
			},
			{
0.059177175, 0.030255958, -0.05279622, -0.042163122, -0.029588643,
			},
			{
-0.070241265, 0.045617253, -0.020968474, -0.06050285, 0.06579693,
			},
		},
	},
	{
		{
			{
0.015069909, -0.03428723, 0.012045823, -0.051924333, 0.006570041,
			},
			{
0.006624706, -0.055437766, -0.030450996, -0.029260047, -0.010534994,
			},
			{
0.06443083, 0.034266837, 0.023381889, 0.038235553, -0.055290103,
			},
			{
0.0013282076, -0.030947857, 0.029567473, -0.063817725, 0.011170417,
			},
			{
-0.0004644096, -0.039393973, -0.014580809, 0.003420025, -0.055150054,
			},
		},
		{
			{
-0.042948727, -0.0717555, 0.036478974, -0.024604075, 0.03770396,
			},
			{
0.014505647, 0.002579011, -0.029646821, 0.06164092, 0.016380168,
			},
			{
0.029044695, 0.03255081, -0.06284649, -0.07413388, 0.017659537,
			},
			{
0.031638704, 0.011833012, 0.011093147, -0.07984371, 0.03370159,
			},
			{
0.06973143, 0.077439934, 0.07435246, 0.024625272, 0.03447383,
			},
		},
		{
			{
-0.057774093, 0.06370525, 0.025769278, 0.07059969, -0.017815761,
			},
			{
0.007485509, -0.05459607, 0.025268093, 0.0118491575, 0.07973006,
			},
			{
-0.034111783, -0.0042500496, 0.0546259, 0.0090032, 0.0017451122,
			},
			{
-0.02575384, 0.028292634, -0.025265507, -0.013788022, 0.02458927,
			},
			{
-0.06317637, 0.00042623281, -0.06031921, -0.055951327, -0.017757818,
			},
		},
		{
			{
-0.0286187, 0.05289805, -0.057264343, 0.03495215, -0.035066135,
			},
			{
0.017566167, 0.018434316, 0.0590311, 0.07577297, 0.016237728,
			},
			{
0.036831737, -0.07910263, -0.040511232, 0.019190729, 0.021832213,
			},
			{
0.07685587, -0.0776061, 0.018175311, -0.008341484, -0.027743895,
			},
			{
0.010835081, 0.056522563, -0.015335448, -0.01426626, -0.053889737,
			},
		},
		{
			{
0.0012577623, -0.04069406, 0.038766623, 0.033355452, -0.06752172,
			},
			{
-0.06924629, 0.028068736, -0.07831149, -0.011322714, -0.041646328,
			},
			{
0.058087036, 0.02457019, 0.056827173, -0.055727247, -0.07226617,
			},
			{
-0.017978698, -0.02942779, 0.07642563, -0.08044941, -0.03883511,
			},
			{
0.01635895, -0.050392877, 0.05509852, -0.025355961, -0.0062219948,
			},
		},
		{
			{
-0.056678385, -0.07894319, 0.053456694, -0.0104003325, -0.02504925,
			},
			{
-0.008423097, -0.012575328, 0.007736571, -0.070273235, 0.018245615,
			},
			{
0.07161884, -0.036108278, -0.07112474, -0.054652147, -0.003895767,
			},
			{
-0.041009765, 0.030758336, -0.023169704, -0.061474323, 0.02094248,
			},
			{
-0.019538406, -0.0068158135, 0.0001919344, -0.0695616, -0.031074487,
			},
		},
	},
	{
		{
			{
-0.05064905, 0.017753258, 0.043706313, -0.0064388737, 0.016684487,
			},
			{
-0.0060824975, -0.0032444596, -0.066875674, 0.07433133, 0.020745404,
			},
			{
-0.07921068, 0.027486764, 0.0028898343, 0.040556975, 0.047953174,
			},
			{
0.015382357, 0.04765366, 0.064077094, -0.0766856, -0.036717474,
			},
			{
-0.06981025, -0.061986983, 0.07611853, -0.0187307, 0.044769302,
			},
		},
		{
			{
-0.061948154, -0.041341286, 0.045789286, -0.0039134175, -0.06758834,
			},
			{
-0.04193875, -0.014835998, 0.05473727, -0.049134836, -0.05475861,
			},
			{
0.04494758, 0.028922647, -0.065628156, 0.05620879, 9.1955066e-05,
			},
			{
0.0020029992, -0.044195972, -0.02835983, -0.07717917, 0.033175334,
			},
			{
-0.08060416, 0.007945977, 0.013762526, -0.06498381, -0.058150075,
			},
		},
		{
			{
-0.04177566, 0.036217615, 0.08016689, 0.054014847, -0.07208338,
			},
			{
0.0110686645, 0.06890991, 0.01638604, 0.065041885, 0.04225052,
			},
			{
-0.0418788, -0.045886558, -0.028221034, 0.06401412, -0.070021674,
			},
			{
-0.0502311, -0.0638163, 0.080945164, 0.047666907, 0.032564297,
			},
			{
-0.044898454, 0.035780422, 0.00024555624, -0.07685801, -0.06641078,
			},
		},
		{
			{
0.04883401, 0.04234407, -0.01430285, 0.027827993, 0.07049461,
			},
			{
0.07866, -0.03836452, 0.032737866, 0.04498239, 0.04620041,
			},
			{
0.048600703, 0.043066308, 0.073975414, 0.0735461, 0.075997084,
			},
			{
-0.017291576, 0.0031269416, 0.0068547726, 0.011880733, -0.04099164,
			},
			{
0.048497975, 0.06452617, 0.042543456, -0.02501525, -0.018956825,
			},
		},
		{
			{
0.030418545, -0.06052945, -0.06469597, -0.037573233, 0.012918524,
			},
			{
-0.0077013075, -0.006066188, 0.019866847, 0.013392247, 0.037180483,
			},
			{
0.008594587, 0.017996117, -0.030702718, 0.021966875, -0.010032475,
			},
			{
0.008652769, -0.024549384, -0.037346125, 0.07497704, -0.078261405,
			},
			{
-0.0030910373, -0.059024155, -0.079193436, -0.04360092, -0.0071211755,
			},
		},
		{
			{
0.037975065, 0.052511454, -0.051782377, 0.008195236, -0.0073958263,
			},
			{
-0.06901239, 0.05022645, -0.06920044, -0.07567056, 0.04820326,
			},
			{
0.06416668, 0.037702136, -0.0632451, 0.026549965, 0.0695917,
			},
			{
0.02414471, -0.0038624927, 0.0698351, -0.012027688, -0.0678011,
			},
			{
-0.05732369, -0.08045616, 0.017726757, 0.013765961, 0.006540574,
			},
		},
	},
	{
		{
			{
0.0065293014, -0.02784301, -0.07362576, 0.06719744, -0.019061543,
			},
			{
0.0068151504, -0.06452392, 0.05629286, -0.06308482, -0.080653116,
			},
			{
0.020803213, -0.079096496, -0.051319964, 0.060168788, -0.012519307,
			},
			{
0.05047387, -0.08076005, 0.06032747, -0.07915457, -0.021678243,
			},
			{
0.04392852, 0.07795155, 0.023097381, -0.06907667, -0.05700381,
			},
		},
		{
			{
-0.01209002, -0.056926392, 0.029639684, -0.027302582, 0.066769525,
			},
			{
0.05379811, 0.045608312, -0.024267815, 0.071970224, -0.0558334,
			},
			{
-0.011430934, 0.014790744, -0.016101375, 0.03582371, -0.052516326,
			},
			{
-0.06329912, 0.07743263, 0.052712128, 0.06922305, 0.039304003,
			},
			{
0.028116569, -0.007970735, 0.071654335, -0.012330875, 0.011388361,
			},
		},
		{
			{
-0.053870484, -0.013209328, -0.045587607, -0.042897567, 0.005668029,
			},
			{
0.03308878, -0.08145492, -0.024278607, 0.020546414, -0.0063499585,
			},
			{
0.07646808, -0.021822385, 0.03577561, 0.07387762, -0.007989794,
			},
			{
0.016621225, -0.019828733, 0.0337978, 0.050131485, -0.02775596,
			},
			{
0.060909465, -0.06830799, 0.051702812, 0.05943337, -0.07417116,
			},
		},
		{
			{
-0.08089816, -0.03970951, 0.059835106, -0.0044921413, -0.0064174533,
			},
			{
0.061430067, -0.04188731, -0.009872772, -0.032777335, -0.012792461,
			},
			{
0.068632945, 0.046900228, -0.0216152, 0.068738624, 0.060952917,
			},
			{
-0.015609175, -0.023781795, -0.037148964, -0.051052712, -0.0070880875,
			},
			{
-0.0068582073, 0.02316729, -0.058104165, 0.004581034, 0.004999958,
			},
		},
		{
			{
-1.7285347e-05, 0.010708444, -0.08160882, -0.0019554421, 0.0012761354,
			},
			{
-0.049528357, -0.06848224, -0.056205243, -0.039904714, 0.077983856,
			},
			{
-0.033890612, -0.047763586, -0.07384583, 0.04146076, -0.07987046,
			},
			{
-0.06675961, -0.040791173, 0.06920086, 0.08079061, 0.0120681,
			},
			{
-0.06578942, 0.04279989, -0.03089983, -0.046659954, -0.058061987,
			},
		},
		{
			{
-0.00025328994, 0.025906771, 0.06421587, -0.006142281, -0.05891658,
			},
			{
-0.043610316, -0.06764181, 0.000740394, 0.027534917, 0.014657378,
			},
			{
-0.06579388, 0.07528813, 0.014366329, -0.005644992, -0.077638954,
			},
			{
0.012142785, -0.044554785, -0.009249456, 0.03593474, 0.002249293,
			},
			{
-0.0530774, 0.014290981, 0.06591132, -0.029812511, -0.03167307,
			},
		},
	},
	{
		{
			{
-0.042544458, -0.0394886, -0.07945751, -0.036745925, -0.035262603,
			},
			{
0.07864262, -0.06489463, -0.04448404, 0.00625851, 0.041859604,
			},
			{
0.055240497, -0.03685075, -0.06124761, 0.026882373, -0.035078593,
			},
			{
0.04013361, 0.046327516, -0.04384748, 0.01840718, -0.07489795,
			},
			{
0.020209983, 0.003092885, -0.06288991, -0.043305464, 0.017927013,
			},
		},
		{
			{
-0.041976195, 0.07994951, -0.05722692, -0.059561342, 0.07587424,
			},
			{
-0.034663714, 0.0795971, 0.03747209, -0.06604135, 0.015465766,
			},
			{
-0.020353451, 0.05913371, -0.046759136, -0.032928564, -0.0028763264,
			},
			{
-0.012195811, -0.039677177, -0.081395924, -0.04016034, 0.022262044,
			},
			{
-0.03386649, -0.03343721, 0.050404876, 0.028549977, -0.032879274,
			},
		},
		{
			{
0.024335556, -0.0243009, -0.04568605, -0.0083210915, 0.047419354,
			},
			{
-0.03764959, 0.017306149, 0.030501463, 0.009284854, -0.061040066,
			},
			{
0.06308253, 0.04405421, 0.0632931, 0.0072586164, -0.02576439,
			},
			{
-0.06467995, -0.035628334, 0.01678799, 0.079534724, -0.0503443,
			},
			{
-0.045823123, -0.04029919, -0.026414614, -0.071309276, -0.020271085,
			},
		},
		{
			{
0.080312416, 0.050435156, -0.05615683, 0.023692727, 0.05088103,
			},
			{
-0.06785675, 0.0033493787, -0.018147007, -0.07522484, -0.012870602,
			},
			{
-0.0671744, -0.0016040951, -0.0009492412, 0.05874586, -0.05996918,
			},
			{
-0.07707497, 0.0644196, 0.024617314, -0.023263112, 0.05623813,
			},
			{
-0.01175639, -0.07237752, 0.07632387, 0.07942116, -0.06760469,
			},
		},
		{
			{
-0.06033605, 0.0043012872, 0.017782897, -0.036345813, -0.075904414,
			},
			{
-0.047321126, 0.076752305, -0.03929688, -0.047043335, -0.01821427,
			},
			{
0.07409999, 0.06663409, -0.027852342, 0.05196923, 0.04672931,
			},
			{
0.06538038, -0.006428346, 0.057998687, 0.026513092, 0.07520127,
			},
			{
0.07995163, 0.06733687, -0.056797072, 0.07510118, -0.029775105,
			},
		},
		{
			{
0.024778381, 0.0055929273, 0.03484705, 0.020303875, 0.042694896,
			},
			{
0.04544525, 0.06491703, 0.08067371, 0.065632686, -0.013668641,
			},
			{
-0.04206001, -0.028967645, 0.035294518, -0.002345994, -0.029121965,
			},
			{
0.00029586256, -0.074292436, 0.030517608, 0.050366536, 0.025349304,
			},
			{
0.011397369, 0.074661896, 0.07535015, -0.07606233, 0.07762165,
			},
		},
	},
};

dtype features_3_bias[16] = {
0.064216256, -0.035526056, 0.044676572, -0.04249906, -0.08163448, 0.039514862, -0.0072726086, 0.036315277, 0.007518962, -0.027647115, -0.06098484, -0.05949424, -0.055127278, -0.064992815, -0.0070440397, -0.016781703,
};

dtype classifier_0_weight[120][16][5][5] = {
	{
		{
			{
-0.046001423, 0.024364624, 0.028321613, 0.006857462, -0.037607335,
			},
			{
0.022800703, 0.048843388, 0.03344689, -0.028897483, -0.0034130998,
			},
			{
0.03146464, 0.04493117, 0.009520728, 0.03950451, 0.009060513,
			},
			{
0.047836374, 0.02788553, 0.00018751621, -0.04875465, 0.016794581,
			},
			{
0.038252715, 0.014441621, -0.03889017, -0.040939003, 0.011310615,
			},
		},
		{
			{
-0.019771893, 0.020277206, 0.037390355, -0.013898827, -0.009817965,
			},
			{
-0.043835055, -0.0124432035, -0.026452756, -0.029460043, -0.006082844,
			},
			{
0.046569753, -0.010218412, -0.006771315, -0.034485392, 0.0086308345,
			},
			{
-0.0021828413, -0.011082344, -0.043969642, 0.018988695, -0.0023028925,
			},
			{
-0.0031472258, 0.0012638047, 0.03219099, -0.019988853, 0.043981824,
			},
		},
		{
			{
-0.007927842, 0.047300886, 0.007708676, -0.013544839, 0.037693877,
			},
			{
0.03803355, 0.03783265, 0.013573784, 0.0048984997, -0.037644915,
			},
			{
-0.007333625, 0.047178116, -0.043523546, 0.030891512, 0.024740878,
			},
			{
0.049472902, -0.044858944, -0.006910242, 0.015623268, 0.035559688,
			},
			{
0.026680823, -0.022490049, 0.020667259, 0.02602781, -0.039006233,
			},
		},
		{
			{
-0.040548097, -0.027620852, 0.012489218, 0.015552957, 0.028377239,
			},
			{
-0.048559524, 0.047839087, 0.03638069, -0.0446132, -0.026389098,
			},
			{
0.0041126534, 0.019081358, 0.015704174, -0.035175554, 0.04823417,
			},
			{
0.033383492, -0.012605049, -0.006043989, -0.04398154, 0.034345817,
			},
			{
0.016209695, 0.02487835, -0.043679476, -0.04045288, 0.01678894,
			},
		},
		{
			{
-0.012588449, 0.017903548, 0.029289935, 0.04242943, 0.00677374,
			},
			{
0.007653285, 0.011551727, -0.03966988, 0.024745349, -0.0050230324,
			},
			{
-0.00760781, 0.03363454, -0.034509648, -0.00475974, 0.0453828,
			},
			{
-0.021378214, -0.045563936, 0.03245772, -0.03576558, -0.002894193,
			},
			{
0.044830296, -0.024372011, -0.0428829, -0.024416262, -0.01110559,
			},
		},
		{
			{
0.036954764, 0.030578818, 0.0034178197, -0.04428881, -0.04171141,
			},
			{
-0.0033196695, -0.019321913, 0.04231463, -0.00091714785, -0.022919638,
			},
			{
-0.031352177, 0.009826649, -0.037760288, -0.032414485, -0.037924588,
			},
			{
0.0045217946, 0.019789506, 0.012366392, 0.01831488, 0.012900617,
			},
			{
-0.012026072, 0.04574139, -0.04527963, 0.042102564, 0.031297397,
			},
		},
		{
			{
0.014351357, -0.04819746, -0.040552747, -4.7385693e-06, -0.003473647,
			},
			{
-0.023879766, -0.02706688, -0.030840844, -0.0051756725, 0.009748954,
			},
			{
0.018550161, 0.011883747, 0.04872856, -0.032703735, 0.041477766,
			},
			{
-0.01859321, 0.014789771, -0.043647148, 0.04097789, 0.014914181,
			},
			{
-0.0093763545, -0.028598165, 0.040061872, -0.012307245, -0.020596659,
			},
		},
		{
			{
0.001856558, 0.023216154, 0.017178211, 0.0056306347, 0.04499081,
			},
			{
-0.028445845, -0.0031267628, -0.0016348846, 0.028428983, -0.025286555,
			},
			{
0.02692521, 0.047054123, 0.039176527, 0.03821275, 0.024573091,
			},
			{
-0.0414489, -0.02723968, -0.0006262176, -0.018914206, -0.021557672,
			},
			{
0.03928158, -0.030866994, 0.044055033, 0.038157824, -0.030132635,
			},
		},
		{
			{
-0.042458802, -0.025306815, -0.004691519, 0.03510179, 0.00720907,
			},
			{
-0.032952704, 0.024508659, 0.008830648, -0.026857197, -0.03340461,
			},
			{
-0.045737762, 0.032252822, 0.0016551912, 0.008412462, 0.02512205,
			},
			{
-0.015551705, 0.0027455166, 0.002537556, 0.007879812, 0.04988641,
			},
			{
0.04922105, 0.022652898, 0.008804161, -0.040604018, -0.026261229,
			},
		},
		{
			{
-0.007517986, 0.016970549, 0.03839132, 0.049999144, -0.03604418,
			},
			{
-0.009183668, 0.011620693, -0.00993548, -0.031481996, -0.009581439,
			},
			{
0.024793092, 0.04648437, 0.04008926, 0.0012958236, -0.023862261,
			},
			{
0.032454077, 0.048655514, -0.022270387, -0.019433051, -0.041941367,
			},
			{
0.045407873, 0.003007304, -0.013952475, -0.04865082, 0.014994722,
			},
		},
		{
			{
-0.030504381, 0.017471712, -0.0038937926, 0.03267139, 0.0450739,
			},
			{
-0.03195848, -0.029843718, -0.031488582, 0.022609975, -0.043213733,
			},
			{
0.035825837, -0.04454435, -0.033265032, -0.038019873, -0.0012309924,
			},
			{
0.0035751686, -0.013779514, 0.028338175, 0.041983124, 0.04638191,
			},
			{
0.040812735, -0.0027250946, 0.040420834, 0.04683489, 0.021135729,
			},
		},
		{
			{
0.030560363, -0.03208281, 0.028860617, -0.025357693, -0.0065592453,
			},
			{
0.045178775, 0.048714656, 0.0017284676, -0.0450219, 0.048513126,
			},
			{
-0.011259735, -0.044125628, 0.027630117, -0.030432267, -0.03301075,
			},
			{
-0.009751957, 1.6994774e-05, 0.042051855, -0.038186263, -0.006462358,
			},
			{
-0.012356125, -0.024845917, -0.041383673, -0.010193862, 0.033254195,
			},
		},
		{
			{
0.034745853, 0.0011736751, 0.040955696, -0.007127296, 0.046850923,
			},
			{
-0.026340514, 0.04319499, -0.016355265, -0.017081618, 0.0042012557,
			},
			{
0.00434367, -0.008188941, -0.011356514, 0.019824926, 0.03639448,
			},
			{
0.0043503866, -0.015657347, 0.032059167, 0.016024489, -0.026649315,
			},
			{
-0.006663792, 0.032675486, 0.0006663203, -0.0068400316, 0.02725419,
			},
		},
		{
			{
0.029997367, 0.015445862, 0.04808155, -0.039585344, 0.046604175,
			},
			{
0.040648285, -0.010005612, 0.00025895238, 0.0021891482, 0.00025554374,
			},
			{
0.035779048, 0.04620033, -0.024511898, -0.01652547, -0.023787988,
			},
			{
0.010669999, -0.004562296, 0.010372143, 0.0109704435, 0.042053062,
			},
			{
0.03432807, 0.02748182, 0.024490628, 0.0148948915, -0.03202074,
			},
		},
		{
			{
0.031343292, -0.0014258213, 0.027325545, -0.040013827, -0.046815105,
			},
			{
-0.041737128, -0.011653405, 0.027849186, 0.04755151, 0.020477358,
			},
			{
0.002758909, -0.014532469, -0.049078584, -0.029904366, -0.02795952,
			},
			{
-0.029713815, 0.045059863, -0.03855154, -0.019654566, -0.030910134,
			},
			{
-0.022374107, 0.010287125, -0.00023891777, 0.0046176016, -0.034122013,
			},
		},
		{
			{
0.027984012, -0.047428448, -0.038057853, 0.047990646, 0.04135294,
			},
			{
0.033495072, 0.0486102, -0.010045737, 0.0414179, 0.043455344,
			},
			{
-0.00083842874, 0.0149144195, 0.002619207, 0.005650401, -0.017959245,
			},
			{
0.031976525, 0.04683302, 0.022767674, 0.0009134896, 0.0009168759,
			},
			{
0.048436996, -0.04288861, 0.032193232, -0.009824831, 0.021532368,
			},
		},
	},
	{
		{
			{
0.016136806, -0.01940884, 0.049462315, -0.0042122193, -0.01939631,
			},
			{
-0.026750421, -0.02320577, 0.030573528, 0.02818362, -0.009728171,
			},
			{
0.017426971, -0.015915226, -0.006461762, -0.024426484, 0.004153054,
			},
			{
0.0422145, 0.030092392, -0.025628423, -0.01459343, 0.025354873,
			},
			{
-0.008864213, 0.026654009, -0.026210302, 0.026288975, -0.039816707,
			},
		},
		{
			{
0.008128934, -0.009887718, 0.009515755, -0.0006488934, 0.01119246,
			},
			{
0.03126887, -0.020603586, 0.041637633, 0.0048264265, -0.02031598,
			},
			{
0.015537474, 0.049455155, -0.049508434, 0.042664547, 0.008912243,
			},
			{
-0.014298819, 0.021547679, 0.0025647879, -0.043157745, -0.049019445,
			},
			{
0.03589308, -0.005157657, -0.024683535, 0.030942272, -0.039559573,
			},
		},
		{
			{
0.009191532, -0.025529569, -0.009227078, -0.038552433, -0.020128507,
			},
			{
-0.04695618, -0.048746545, -0.015374757, 0.040959794, 0.042043727,
			},
			{
-0.0104729235, -0.002873309, -0.013159275, -0.027295709, -0.04189815,
			},
			{
-0.039229274, 0.010030568, -0.030292375, 0.046505455, 0.045889888,
			},
			{
-0.006433435, -0.043807, -0.023508275, 0.02388085, -0.026799083,
			},
		},
		{
			{
0.020178061, -0.01613433, -0.0033540428, 0.04185607, 0.029411409,
			},
			{
0.045478586, -0.0052499883, 0.0018245801, 0.011792868, -0.047069777,
			},
			{
0.009296469, -0.038983386, 0.035422895, 0.04423963, 0.03609022,
			},
			{
-0.038826086, 0.01733366, 0.049665842, 0.041160848, 0.0082604885,
			},
			{
-0.007681679, 0.0131753795, -0.013781149, 0.03721461, -0.021878475,
			},
		},
		{
			{
0.039838437, 0.034983274, 0.010773998, 0.037035752, -0.012717068,
			},
			{
-0.04785003, 0.031136904, 0.006312769, 0.009206586, 0.004245192,
			},
			{
-0.015391082, -0.03850639, -0.007989366, 0.021164987, -0.032379545,
			},
			{
-0.04055512, -0.020080244, 0.04010987, 0.049517635, -0.04458448,
			},
			{
-0.003505297, 0.015134636, -0.041935425, -0.019496083, -0.02364027,
			},
		},
		{
			{
-0.04341504, -0.042728987, 0.023262952, 0.024828304, -0.019618137,
			},
			{
-0.0020673461, -0.019626392, -0.035325427, 0.04668844, 0.0355863,
			},
			{
-0.0449086, -0.041552883, 0.04003093, 7.0899725e-05, 0.0029018708,
			},
			{
0.028860759, -0.0016155057, -0.018750507, 0.018309657, 0.016865898,
			},
			{
0.030815836, -0.039442617, 0.043239404, 0.0022699833, 0.020249683,
			},
		},
		{
			{
0.04575718, 0.004228752, -0.026490867, 0.0034254119, -0.046724886,
			},
			{
0.03149533, -0.035164505, 0.0453205, 0.02802116, 0.029418271,
			},
			{
0.044545922, -0.019322826, 0.034316566, -0.025486065, 0.043199454,
			},
			{
0.02787206, -0.02545371, 0.0024058893, -0.038196612, -0.049454033,
			},
			{
-0.010487795, 0.035850663, 0.028985139, 0.016609918, -0.028526003,
			},
		},
		{
			{
0.03706685, -0.046799373, -0.032905005, -0.030340558, 0.00964753,
			},
			{
-0.0091843605, 0.026934978, 0.0016114041, -0.008888565, 0.008916907,
			},
			{
0.036977675, -0.0026548319, 0.012297284, 0.04207628, -0.026139034,
			},
			{
0.019976255, -0.022169918, -0.046051193, -0.02414549, 0.036943797,
			},
			{
-0.0045567043, 0.0032098964, -0.042025976, 0.01655588, -0.0397807,
			},
		},
		{
			{
-0.011244476, 0.01605967, -0.023608942, 0.015201408, -0.030074924,
			},
			{
0.001599472, -0.040889867, -0.038582303, -0.021580506, 0.009418368,
			},
			{
-0.004240416, 0.034860823, 0.012955312, 0.041755755, 0.023724016,
			},
			{
0.027384583, 0.0020563193, -0.022911567, 0.02005482, -0.013086744,
			},
			{
0.048860077, -0.0099949725, 0.044217926, 0.019038413, -0.022796256,
			},
		},
		{
			{
-0.029287755, 0.018457439, -0.0021631196, 0.016600046, 0.036358308,
			},
			{
0.019045357, 0.0098362155, 0.02060816, -0.007915724, -0.009519078,
			},
			{
-0.019082302, 0.0104146525, 0.012816403, 0.02743369, 0.041356694,
			},
			{
-0.044670846, 0.04141743, -0.027402092, -0.040339343, 0.017539088,
			},
			{
-0.036910392, -0.03956783, -0.025262421, 0.035610173, 0.006704729,
			},
		},
		{
			{
0.029127631, 0.04379965, 0.04368368, 0.047291536, -0.031207437,
			},
			{
-0.028268887, 0.0139413215, 0.03506201, 0.002923213, -0.042153798,
			},
			{
0.014281366, -0.035585802, 0.0049514472, 0.004806984, -0.009715356,
			},
			{
0.045479838, -0.038850635, -0.009540878, 0.03648771, 0.002273716,
			},
			{
-0.014958452, 0.022326265, 0.0007949099, 0.023198191, 0.042046476,
			},
		},
		{
			{
-0.0353551, -0.015182842, -0.04024146, 0.00087580085, 0.028852921,
			},
			{
0.020091075, -0.0071067736, 0.0125856735, -0.04878812, 0.020797338,
			},
			{
0.03823984, 0.028832767, -0.040948667, -0.0005855262, -0.022049857,
			},
			{
0.008578993, -0.02186749, -0.043563467, -0.04070742, -0.031999506,
			},
			{
-0.023692776, 0.034646157, 0.0034059696, -0.038228273, -0.0091491155,
			},
		},
		{
			{
0.029266115, 0.030156422, 0.027068611, 0.038554315, -0.03808365,
			},
			{
0.020698156, 0.03751387, 0.02103303, 0.049480524, -0.011678409,
			},
			{
0.046774697, -0.029487474, 0.034310628, -0.02364555, 0.00016073138,
			},
			{
0.0056117177, 0.03190511, -0.01481374, -0.00997629, 0.012762073,
			},
			{
-0.0077072904, -0.012066077, 0.032153133, -0.02382483, 0.02557842,
			},
		},
		{
			{
-0.0018837154, 0.033940736, -0.04820065, 0.00118763, 0.04298717,
			},
			{
0.040040325, -0.0013060644, 0.026030887, 0.01738647, 0.017803397,
			},
			{
-0.007919587, 0.014000658, 0.025756624, -0.03592556, 0.011546504,
			},
			{
-0.049998373, -0.016649716, 0.01692075, 0.0061304457, -0.026939018,
			},
			{
-0.03800853, 0.028052006, -0.044532992, -0.03422754, -0.008534737,
			},
		},
		{
			{
-0.030857176, 0.029594269, -0.022363318, -0.038543362, 0.034805845,
			},
			{
0.01317716, -0.032202475, -0.026417082, -0.0039239824, 0.0426958,
			},
			{
-0.0012924187, 0.023586366, -0.038156062, 0.03876796, 0.008739315,
			},
			{
0.014620375, 0.04707821, -0.033453025, 0.040110286, -0.037861377,
			},
			{
-0.02606734, 0.02595878, -0.032099552, -0.049871314, -0.009038109,
			},
		},
		{
			{
0.0018154494, -0.013471641, 0.00069025904, -0.03828906, 0.0195042,
			},
			{
0.009314127, 0.04378524, 0.015016038, -0.037612908, 0.009291343,
			},
			{
0.016258862, -0.032385692, -0.025723463, 0.0389751, 0.008393288,
			},
			{
0.01964822, 0.03142001, -0.036776476, -0.032967914, -0.03288264,
			},
			{
0.020715658, -0.023682052, -0.006192982, -0.0027271435, 0.026144017,
			},
		},
	},
	{
		{
			{
-0.004221458, 0.009551119, 0.04557481, 0.03939123, 0.022360455,
			},
			{
-0.012015004, -0.026343782, 0.0014901571, -0.049839206, 0.00785353,
			},
			{
0.040135775, -0.047604967, -0.019222839, -0.016319234, -0.0024335198,
			},
			{
0.04358482, -0.036955737, 0.0016141646, -0.015918493, 0.038761478,
			},
			{
-0.04038149, -0.040267043, 0.007318575, 0.027711552, 0.026445571,
			},
		},
		{
			{
0.048593026, 0.027785208, -0.033798277, -0.025720818, 0.0051762983,
			},
			{
0.041839298, -0.044852883, -0.02326019, 0.029357884, -0.030650765,
			},
			{
0.031084146, 0.031387124, 0.00061618164, -0.039793808, -0.010944545,
			},
			{
-0.016282499, -0.005134903, -0.028150326, -0.0050877854, 0.02886371,
			},
			{
0.027174499, -0.02945723, -0.032623895, 0.028859112, -0.018520378,
			},
		},
		{
			{
0.021938715, -0.012073986, 0.035949174, -0.023424715, 0.049624275,
			},
			{
0.04622258, 0.046726774, 0.0053192154, -0.016179156, -0.03428243,
			},
			{
0.03423096, -0.0039301626, -0.012527965, -0.03667011, 0.011827193,
			},
			{
0.048640143, -0.02460193, -0.021980364, 0.0090627, 0.0051858313,
			},
			{
0.017796312, -0.011223219, -0.016960185, 0.044562314, 0.028521229,
			},
		},
		{
			{
0.005935032, 0.031680312, 0.042356033, 0.0018547252, -0.027193893,
			},
			{
-0.044710822, 0.008177452, -0.012689233, 0.042646166, 0.048947904,
			},
			{
-0.03315986, 0.03260385, -0.025173146, -0.022300541, -0.024720997,
			},
			{
0.001801908, -0.049144413, 0.00874424, -0.04565823, -0.03805394,
			},
			{
0.025489982, 0.021178361, 0.02647956, 0.02580623, -0.03887403,
			},
		},
		{
			{
0.014664028, 0.014831182, 0.026653055, -0.030969549, -0.021285623,
			},
			{
0.029962916, 0.038976286, -0.035038464, -0.04854971, -0.023926605,
			},
			{
0.028392296, -0.0332157, -0.024963422, 0.037017327, 0.02462488,
			},
			{
0.023691628, 0.0023934469, 0.026918303, 0.023266125, -0.010313429,
			},
			{
-0.044144835, -0.012036391, 0.0041046143, -0.025633467, 0.01962668,
			},
		},
		{
			{
0.0498303, 0.036229555, -0.044676512, -0.011084698, 0.028419267,
			},
			{
-0.029947145, 0.02217513, -0.008038558, -0.025188996, -0.019056892,
			},
			{
-0.018446572, 0.040379312, -0.006822504, -0.01767369, 0.02590156,
			},
			{
0.038631592, -0.018771036, 0.0025792718, 0.019986156, 0.0224992,
			},
			{
-0.018901844, 0.049854014, 0.03500634, -0.044032793, -0.015511788,
			},
		},
		{
			{
-0.046943128, 0.003610313, -0.010241669, 0.011915635, 0.012423031,
			},
			{
0.038135003, 0.046918828, 0.0065515824, -0.023423875, 0.016642485,
			},
			{
-0.0070623085, -0.0152909085, 0.001963459, -0.042394456, 0.016447295,
			},
			{
-0.030951012, 0.034306455, -0.041754235, 0.036914956, 0.048123527,
			},
			{
-0.015419655, 0.043278437, -0.026738513, -0.029679352, 0.023951713,
			},
		},
		{
			{
-0.0074218027, -0.00078975037, -0.009687394, 0.03762013, -0.027162118,
			},
			{
0.02174275, 0.008145504, 0.012253553, 0.039271597, 0.045246292,
			},
			{
0.030548904, 0.025839869, 0.04457524, -0.03942389, 0.0047678873,
			},
			{
0.00868817, 0.01470406, 0.0004917905, -0.013454486, -0.03772255,
			},
			{
0.019896362, 0.007611703, -0.0064413324, 0.031925056, -0.014353108,
			},
		},
		{
			{
-0.017353464, -0.02886985, -0.03525895, 0.008303978, -0.02109754,
			},
			{
-0.03065117, 0.047232006, -0.03153366, 0.047261942, 0.041932527,
			},
			{
-0.027188003, 0.013245147, 0.04210901, -0.02915066, -0.02276153,
			},
			{
-0.029933263, 0.017126296, -0.025566464, 0.0003140755, 0.022893984,
			},
			{
0.043652114, -0.011402238, 0.037303593, -0.038335346, 0.006640017,
			},
		},
		{
			{
-0.048590507, 0.011168592, 0.027027506, -0.0190615, 0.022679072,
			},
			{
-0.030398369, 0.025546383, 0.035184596, 0.0035615787, 0.011761259,
			},
			{
-0.015457638, -0.031442955, 0.00039138272, -0.017795105, -0.04908948,
			},
			{
0.0009260252, -0.04413537, 0.04919154, -0.016385026, 0.047551427,
			},
			{
0.0056305937, -0.018142212, 0.02603874, 0.042080555, -0.047939,
			},
		},
		{
			{
0.024487454, 0.04551107, 0.0014892742, -0.020743473, 0.034197036,
			},
			{
-0.03052007, 0.01963586, -0.042465504, -0.0147237, 0.020809364,
			},
			{
-0.038572956, 0.036273245, 0.04926989, -0.036393393, -0.023383265,
			},
			{
0.04315028, 0.026222195, 0.008559108, 0.01868819, -0.028716946,
			},
			{
0.014811356, 0.04971162, 0.0018268153, -0.032626748, -0.010860313,
			},
		},
		{
			{
-0.0470364, -0.019446403, -0.008371759, -0.0015828088, -0.03227649,
			},
			{
0.02399743, 0.03635085, 0.0049841776, 0.020446751, 0.019834477,
			},
			{
-0.037817407, 0.029337179, -0.00893756, 0.014871176, -0.03840471,
			},
			{
-0.012296367, -0.012054145, 0.009444017, 0.013650421, 0.0012566634,
			},
			{
0.030324768, 0.04519401, -0.0077790096, 0.008283138, -0.006339222,
			},
		},
		{
			{
0.043901335, 0.023927305, 0.0009905286, -0.035207726, 0.006595254,
			},
			{
0.02060889, -0.0071202293, 0.03436682, -0.017186671, 0.011203021,
			},
			{
0.014681671, -0.01457306, -0.018469263, -0.040549975, -0.048455853,
			},
			{
0.019511152, -0.0004780516, 0.049607556, -0.008995295, -0.04000287,
			},
			{
-0.037508428, 0.02993587, -0.022903437, 0.041388664, -0.04376666,
			},
		},
		{
			{
0.034046438, -0.045430835, -0.03517167, 0.012744781, -0.032118544,
			},
			{
-0.025644844, -0.043277424, -0.018160861, -0.026634574, -0.004977487,
			},
			{
-0.039491277, 0.0236958, 0.040137228, -0.00499215, 0.02914467,
			},
			{
-0.020837551, 0.01761419, -0.049617555, -0.04616949, -0.008398574,
			},
			{
0.036170874, -0.028115183, -0.04939126, -0.0057124086, 0.041710917,
			},
		},
		{
			{
0.012524109, -0.009152092, -0.004727669, 0.011639845, 0.0023988076,
			},
			{
-0.011326052, 0.004963696, -0.0098372325, -0.03129956, -0.0319907,
			},
			{
0.028803747, -0.00016909838, -0.028011208, 0.044359926, 0.029791307,
			},
			{
0.044282023, 0.019136313, 0.04055878, -0.042272747, 0.024996083,
			},
			{
-0.049126245, -0.008171827, -0.04591036, -0.048239447, -0.04168411,
			},
		},
		{
			{
0.005504351, 0.031960633, -0.021276904, 0.008274365, -0.02805006,
			},
			{
0.02065355, -0.02742511, -0.04639695, 0.036946345, -0.017775387,
			},
			{
-0.043815445, 0.038214285, 0.013643373, -0.019184912, 0.04240078,
			},
			{
-0.0017505661, -0.021702379, 0.027580459, -0.017723583, 0.049789343,
			},
			{
0.0068502724, -0.03756406, 0.016895447, -0.030788606, 0.040031914,
			},
		},
	},
	{
		{
			{
-0.0038490593, 0.040400777, -0.03277091, 0.0132214315, -0.003425479,
			},
			{
-0.043255713, -0.04160841, -0.018559732, -0.030874496, -0.015075527,
			},
			{
0.005806893, -0.0072854534, -0.0060378835, -0.016601752, -0.0045386776,
			},
			{
-0.015845627, -0.016036648, 0.01063332, -0.03250139, -0.020711958,
			},
			{
-0.030924534, -0.035898466, -0.030216588, 0.037846666, -0.0131131485,
			},
		},
		{
			{
0.03856234, -0.04551183, 0.040236447, -0.031177765, 0.038602624,
			},
			{
-0.022726316, -0.04435584, -0.047018655, 0.037248608, 0.00532376,
			},
			{
-0.026204253, 0.04805847, 0.010100208, -0.043302663, 0.019275818,
			},
			{
-0.030194784, 0.009627301, 0.037705008, -0.032865636, 0.030410636,
			},
			{
-0.0028199665, -0.010384519, -0.03194486, 0.008226823, 0.047569405,
			},
		},
		{
			{
-0.012686521, -0.024943048, -0.031077523, -0.016219199, -0.04412199,
			},
			{
0.001956921, -0.028054643, -0.0378351, 0.0043817163, 0.049134705,
			},
			{
0.00521072, -0.022877825, -0.047522265, -0.021899058, 0.0050944015,
			},
			{
-0.025462419, -0.002935417, 0.02981845, -0.03653431, 0.02316529,
			},
			{
-0.025722891, -0.03639417, -0.04997916, 0.0467978, 0.035167377,
			},
		},
		{
			{
-0.035340626, -0.022124624, -0.0338417, 0.041958008, -0.04037731,
			},
			{
-0.008651096, -0.0076309144, -0.0031110048, 0.0004644394, -0.03373784,
			},
			{
-0.040672712, 0.042965177, 0.04947487, 0.04215974, 0.018513862,
			},
			{
-0.0073163994, 0.013499085, 0.039588246, -0.044583466, -0.03543505,
			},
			{
-0.023289068, -0.009760957, 0.0035895891, -0.042557716, -0.03200973,
			},
		},
		{
			{
-0.03410381, -0.009468913, 0.0077110827, 0.025555741, 0.024866942,
			},
			{
0.012245219, -0.03727308, -0.04853257, 0.0018665381, 0.033164043,
			},
			{
0.039421823, 0.0350726, -0.049703747, -0.049988694, -0.031249195,
			},
			{
-0.02195689, 0.012349904, 0.026189562, 0.045458864, -0.03818019,
			},
			{
-0.013796337, -0.004443966, -0.047666937, 0.0022218116, -0.004127998,
			},
		},
		{
			{
-0.039593913, 0.0031687804, 0.021237735, 0.020068798, 0.017151985,
			},
			{
-0.016027085, 0.038211633, 0.0101929195, 0.009565264, 0.0056202933,
			},
			{
0.0012594536, 0.039664548, -0.040834676, -0.047608282, -0.031307258,
			},
			{
0.020903725, 0.019010741, -0.004671335, 0.027746055, -0.01654768,
			},
			{
-0.038035877, 0.008633085, 0.0020293072, 0.023698624, 0.02899329,
			},
		},
		{
			{
-0.021952933, -0.025056595, 0.014809307, -0.006869383, -0.0396766,
			},
			{
0.0048232786, 0.012830634, -0.017586172, -0.039392315, 0.010777153,
			},
			{
-0.003992416, 0.014498975, 0.049962346, -0.040253412, 0.047126826,
			},
			{
-0.03655277, 0.010047335, -0.013819963, 0.0105002895, 0.010517728,
			},
			{
0.045974758, -0.030185312, 0.00761215, 0.01653326, 0.048751917,
			},
		},
		{
			{
0.016569246, -0.03259728, 0.0057112873, 0.006346844, -0.04788732,
			},
			{
0.027475093, -0.04131504, 0.010570485, 0.040763456, 0.012754936,
			},
			{
-0.035763502, -0.021713048, 0.044732455, -0.0404977, -0.035289835,
			},
			{
-0.010370374, -0.028314084, -0.0031744242, -0.048905857, 0.020660173,
			},
			{
-0.0060754716, 0.041669946, 0.046000656, -0.01478846, -0.034383886,
			},
		},
		{
			{
-0.027660012, 0.022193704, -0.04949602, -0.0020658262, -0.049609423,
			},
			{
0.047651302, -0.016023416, 0.027891893, 0.009714782, 0.005951274,
			},
			{
0.031279054, -0.035838433, 0.0484646, -0.026514048, -0.039763868,
			},
			{
-0.033761818, 0.038333815, 0.0017028674, -0.0074395835, -0.02701968,
			},
			{
0.012811761, -0.026553197, 0.02257352, 0.0019337833, 0.016660813,
			},
		},
		{
			{
-0.014868211, -0.03360282, 0.0051212795, 0.03205267, 0.01934662,
			},
			{
-0.047174465, -0.004222654, -0.016822957, -0.024992598, 0.038926277,
			},
			{
-0.032455504, 0.01080519, 0.0145333, -0.035744183, 0.041321848,
			},
			{
-0.027210588, -0.0028870292, 0.021333795, 0.03168655, -0.048688263,
			},
			{
0.03977262, -0.012539972, -0.04698983, 0.0015830286, -0.013717841,
			},
		},
		{
			{
0.03563348, -0.0038981736, -0.0357125, -0.036104877, -0.0056866817,
			},
			{
-0.04253189, 0.014553878, 0.0067693517, 0.033195857, 0.04456574,
			},
			{
-0.024288172, 0.018899743, 0.028612565, -0.044988573, -0.010209549,
			},
			{
-0.0021177046, 0.026044223, 0.03163592, 0.044294078, -0.014077149,
			},
			{
-0.033775873, 0.03210522, 0.025387678, -0.04073312, 0.005707562,
			},
		},
		{
			{
0.048010174, -0.0062783547, -0.019438017, -0.011421233, -0.00692001,
			},
			{
0.03146061, 0.007874966, 0.014396358, -0.02530287, -0.043691006,
			},
			{
0.03652284, 0.03379472, -0.01854533, 0.012701046, 0.019763146,
			},
			{
-0.042194646, 0.047246065, 0.038612124, 0.0069275796, 0.039040502,
			},
			{
-0.036258947, 0.020539295, -0.031284023, -0.029012108, -0.0314034,
			},
		},
		{
			{
-0.036794513, 0.037350003, 0.022399101, -0.032045588, -0.00439151,
			},
			{
-0.042577393, 0.04264197, 0.031093333, -0.021689743, -0.012093972,
			},
			{
0.009915035, -0.023265798, 0.020984787, -0.016809057, 0.028718043,
			},
			{
0.010129839, 0.032017086, 0.0003575161, -0.016131021, -0.0066785216,
			},
			{
-0.013761334, -0.03468915, 2.5697052e-05, 0.017234396, 0.02434716,
			},
		},
		{
			{
-0.0017745122, -0.035870783, -0.015667506, 0.006533522, 0.022315983,
			},
			{
0.038156766, -0.012109369, 0.033354606, -0.032726184, -0.04635641,
			},
			{
-0.03931907, -0.0032027848, 0.03657527, -0.018908728, -0.049857,
			},
			{
0.01594508, 0.023033012, 0.00472977, 0.0023191087, -0.0082702935,
			},
			{
-0.019949377, 0.016319785, -0.008048296, -0.020393139, -0.0155412145,
			},
		},
		{
			{
-0.011593007, 0.030219857, -0.018308334, 0.025923964, -0.040276427,
			},
			{
0.018291552, 0.03052305, 0.017655525, 0.010495525, -0.014648281,
			},
			{
-0.025867302, 0.040853333, -0.01953767, -0.02626471, 0.019524273,
			},
			{
0.01515701, 0.04272392, -0.010754414, -0.022487003, -0.034133382,
			},
			{
0.042406213, -0.012675386, -0.047506034, 0.04306868, 0.036473107,
			},
		},
		{
			{
0.019324373, 0.03509112, 0.00080838054, 0.0355659, 0.018381532,
			},
			{
-0.028755171, 0.034118507, -0.01460173, -0.0013640523, -0.015663095,
			},
			{
-0.027866168, 0.032985236, -0.042265564, -0.013453651, -0.047577303,
			},
			{
0.031508673, 0.018689606, -0.030360729, 0.0017663613, -0.01849981,
			},
			{
0.01845513, -0.023057008, -0.044789206, -0.011199009, -0.03498164,
			},
		},
	},
	{
		{
			{
-0.027675444, 0.03934217, -0.014170051, 0.02546012, -0.0072993413,
			},
			{
-0.030584354, 0.04745077, 0.021842908, -0.03226935, 0.014866609,
			},
			{
0.005827863, 0.026589569, 0.03477565, 0.00091049075, -0.03101266,
			},
			{
-0.022597283, 0.036621023, -0.017653555, 0.025788423, 0.0184674,
			},
			{
0.0462741, 0.048093263, -0.030574251, -0.011998136, 0.013877694,
			},
		},
		{
			{
-0.04010682, -0.01859523, -0.00036535785, 0.04724784, 0.020327974,
			},
			{
-0.015050482, 0.03802393, -0.026239848, -0.012898963, -0.012843829,
			},
			{
-0.013354994, -0.021539664, 0.04321793, -0.026074434, -0.030613584,
			},
			{
-0.028115427, -0.01771491, 0.016104717, -0.015581865, 0.025831152,
			},
			{
-0.011847973, -0.016225837, -0.034417637, 0.042118747, 0.03239551,
			},
		},
		{
			{
-0.040827084, -0.04262091, -0.014529485, -0.027384205, 0.041828405,
			},
			{
0.035456564, -0.0031138659, 0.022530396, -0.013584983, 0.02200747,
			},
			{
0.034207437, 0.032435324, -0.0305278, 0.038622025, 0.010568552,
			},
			{
0.031421367, 0.041496698, 0.040981535, -0.0038709268, -0.022127641,
			},
			{
0.025583614, 0.022259418, 0.015202727, -0.015788324, -0.027025228,
			},
		},
		{
			{
-0.03038959, 0.048073474, -0.0020807497, 0.01275057, 0.009522833,
			},
			{
0.049162988, -0.036707282, 0.039523307, -0.01026506, 0.019537035,
			},
			{
-0.018621206, -0.0278315, -0.049065467, 0.01599053, 0.030097421,
			},
			{
-0.013131462, 0.015309956, 0.040137563, -0.039390616, -0.010265827,
			},
			{
-0.027853549, 0.019099656, 0.044129875, -0.03450035, -0.012565702,
			},
		},
		{
			{
-0.0047711506, -0.021925652, -0.042183258, 0.038528707, -0.024512334,
			},
			{
-0.025974214, 0.04103363, 0.011142343, -0.015595872, -0.01770408,
			},
			{
0.0049264245, 0.04572751, 0.030337665, -1.1771917e-05, -0.025096864,
			},
			{
-0.024293019, 0.046927724, -0.017998409, -0.019972224, -0.0477616,
			},
			{
-0.04077152, -0.048322834, 0.01717678, 0.020763408, -0.046813335,
			},
		},
		{
			{
0.0156287, 0.0045921206, -0.023275226, 0.03906167, 0.03346209,
			},
			{
-0.032572407, 0.021136556, 0.04124545, 0.005457975, -0.015180014,
			},
			{
0.03732634, -0.011115413, 0.009884059, -0.029181588, 0.038650077,
			},
			{
-0.04991398, 0.0061311238, 0.04689211, 0.042522524, -0.029801978,
			},
			{
0.04154038, 0.020922784, -0.026605202, -0.015235633, -0.026604075,
			},
		},
		{
			{
0.02416772, -0.035152726, 0.028286044, -0.0004126355, -0.01684215,
			},
			{
-0.03484928, 0.044949327, -0.01021219, -0.012558393, -0.033132285,
			},
			{
-0.0077463873, -0.026618844, -0.025139034, -0.009537362, 0.024545748,
			},
			{
0.04948676, -0.018141866, 0.029778171, 0.028919969, -0.04076894,
			},
			{
-0.017440856, 0.035564903, 0.019708466, -0.018472333, 0.04133353,
			},
		},
		{
			{
-0.023441005, -0.046932172, 0.0014463589, 0.049966697, -0.048927512,
			},
			{
0.0018422715, -0.02339744, -0.043752044, 0.0060083345, -0.0348999,
			},
			{
0.023436163, 0.0036171675, 0.01891506, 0.03643209, -0.045953065,
			},
			{
0.019865338, -0.021349717, -0.024529904, -0.007628657, -0.022656864,
			},
			{
-0.03230052, -0.025728112, 0.017075155, -0.0053600892, -0.013385572,
			},
		},
		{
			{
-0.034131475, -0.04176604, 0.03315747, 0.03339069, 0.01522303,
			},
			{
-0.03571129, 0.010391317, -0.048523992, -0.043658923, 0.008820273,
			},
			{
0.041993085, 0.031626295, 0.04304144, -0.042502195, 0.036128927,
			},
			{
0.021667283, 0.018198598, -0.01721587, 0.033224214, -0.012604229,
			},
			{
-0.045768302, -0.0044504106, 0.04535639, -0.04429838, 0.015035119,
			},
		},
		{
			{
0.040285844, -0.014839679, -0.026025278, -0.012996174, 0.008514006,
			},
			{
0.000156831, 0.00263853, 0.016218308, -0.028035773, -0.011353701,
			},
			{
-0.00089297816, 0.014859628, 0.014097121, 0.037240673, -0.024499698,
			},
			{
0.03350872, -0.019711478, -0.00010347366, -0.018853664, 0.041492794,
			},
			{
-0.041588545, -0.019920254, 0.04128514, -0.0050083026, 0.020587508,
			},
		},
		{
			{
0.027025353, 0.025893394, -0.013837326, 0.02873293, -0.037832953,
			},
			{
-0.0410102, -0.0069576316, 0.011065006, -0.04622833, 0.0054166913,
			},
			{
-0.044681143, 0.009776711, -0.040742032, -0.020316482, -0.021815384,
			},
			{
-0.038513344, 0.04900964, -0.021564161, 0.006946467, 0.034769688,
			},
			{
0.041459102, 0.010900043, -0.030170484, 0.026229631, 0.042792108,
			},
		},
		{
			{
-0.023910183, -0.041300766, -0.043855406, -0.0021359734, 0.0011664033,
			},
			{
0.047519047, -0.04790132, -0.03384415, -0.04696397, -0.023956114,
			},
			{
0.0060007162, 0.018529568, -0.03614325, -0.0027061217, 0.009544741,
			},
			{
0.0068314597, -0.043898698, -0.04586466, 0.029434916, 0.0088913515,
			},
			{
0.0318822, 0.0048398897, -0.02771076, -0.0061318576, -0.034816794,
			},
		},
		{
			{
0.023219544, -0.037227053, -0.04637868, -0.011119746, -0.029237492,
			},
			{
-0.022249807, 0.03163347, 0.04172833, 0.04805148, 0.04279435,
			},
			{
-0.010866098, -0.00825993, 0.007335771, -0.0031237379, 0.00816505,
			},
			{
-0.048992224, 0.013108607, -0.01695361, -0.021986281, -0.04385821,
			},
			{
-0.049223926, 0.037135195, 0.010044515, 0.0035079047, -0.011530839,
			},
		},
		{
			{
-0.0019804835, -0.010811258, -0.018019687, 0.016432028, 0.0401457,
			},
			{
0.014619473, 0.008102544, 0.0028370246, 0.00018876046, 0.048609797,
			},
			{
0.020002928, 0.033258293, 0.04555024, 0.039836865, -0.041062485,
			},
			{
0.032264475, -0.021178532, 0.030649949, -0.024140555, 0.007419221,
			},
			{
0.018266771, 0.014769074, -0.034929615, -0.0074142404, -0.045398742,
			},
		},
		{
			{
-0.014678188, 0.015310068, 0.04312132, -0.047148135, 0.019105006,
			},
			{
0.040593732, -0.020671356, -0.047711503, 0.03703511, -0.008785367,
			},
			{
-0.009521998, -0.0038998425, -0.024406392, 0.048037175, 0.04368064,
			},
			{
0.017378297, 0.032658342, -0.047648754, -0.042664178, -0.006789334,
			},
			{
-0.030260712, -0.025457395, 0.0236567, 0.0057305098, -0.021539105,
			},
		},
		{
			{
0.015135918, 0.03975592, 0.003762655, 0.008293796, 0.048120525,
			},
			{
0.011965536, 0.028806996, 0.039770234, -0.023737615, 0.0014434159,
			},
			{
0.0075324886, -0.032375455, -0.0073798224, 0.04139557, 0.03862763,
			},
			{
0.03146233, -0.042497065, -0.030505044, -0.027879125, 0.03608502,
			},
			{
-0.0151752755, 0.0039484873, 0.011244703, 0.0031218715, 0.03727186,
			},
		},
	},
	{
		{
			{
-0.029738754, -0.0412027, -0.016744655, -0.024162663, -0.0042341836,
			},
			{
-0.012879688, -0.04779265, -0.048015703, 0.028741714, 0.011695415,
			},
			{
-0.0047058538, 0.03226571, -0.03575226, 0.024596948, -0.04385672,
			},
			{
-0.022447562, -0.0040529147, 0.002955269, 0.048469465, -0.01810772,
			},
			{
0.019205678, 0.016643856, 0.0070745237, -0.013728607, -0.007749371,
			},
		},
		{
			{
0.002079241, -0.04433435, 0.023057226, 0.03383233, 0.036098327,
			},
			{
-0.002655536, 0.049022544, -0.0010658614, 0.01577561, -0.04972704,
			},
			{
-0.00185306, -0.017035425, 0.04622263, -0.009421062, 0.048960697,
			},
			{
-0.03268679, -0.046577126, -0.039398946, 0.03864525, -0.03861756,
			},
			{
0.034157995, 0.030584935, -0.039578903, -0.036255628, 0.047586832,
			},
		},
		{
			{
-0.046966534, 0.0031919368, -0.048665065, 0.016046342, -0.026518404,
			},
			{
0.026737627, -5.3774565e-05, 0.045128178, -0.04772636, -0.018441457,
			},
			{
0.005096525, 0.029306803, 0.043266576, -0.0130800605, 0.035254825,
			},
			{
-0.026202185, -0.045747157, 0.036749173, 0.045570236, -0.022599114,
			},
			{
-0.0394215, -0.02836644, 0.039347354, 0.040817518, 0.0031526275,
			},
		},
		{
			{
-0.00058632344, -0.016347308, -0.005490858, 0.049392495, 0.010068476,
			},
			{
0.005966991, 0.030993823, 0.009571593, -0.015403021, 0.023915287,
			},
			{
0.0018783212, -0.044410426, -0.002746649, 0.034273926, 0.0071055777,
			},
			{
-0.017456602, 0.019489828, 0.020678658, -0.04401346, 0.04170719,
			},
			{
-0.030512376, -0.012146242, -0.027915299, 0.03356648, -0.026828175,
			},
		},
		{
			{
-0.019382495, -0.0338782, 0.03466397, 0.009413116, 0.037848074,
			},
			{
0.017195735, -0.029749436, 0.022179518, -0.016007144, -0.009355031,
			},
			{
-0.0066023283, -0.013499808, 0.00055795163, 0.018026594, 0.04882488,
			},
			{
0.032485347, -0.03648316, -0.021110624, -0.014358003, -0.045238424,
			},
			{
-0.04938835, 0.0050797984, 0.021910962, -0.031523384, 0.025042627,
			},
		},
		{
			{
0.03502662, 0.017069373, 0.025157187, -0.018036969, 0.019612234,
			},
			{
0.032309566, 0.036337737, 0.04063833, -0.027768677, -0.031172752,
			},
			{
0.041453864, 0.046186943, -0.009840358, -0.016944628, 0.021025006,
			},
			{
0.010597575, -0.03774912, -0.03990205, 0.020953719, -0.043604743,
			},
			{
-0.022993851, -0.044282354, -0.04681194, -0.0089124665, 0.007208951,
			},
		},
		{
			{
0.008209694, -0.01959352, 0.02840748, 0.03788655, -0.0010267682,
			},
			{
-0.02862075, -0.024469292, 0.033183996, 0.011888273, -0.011443414,
			},
			{
-0.0491093, -0.00058618933, -0.0013979562, -0.008506678, -0.04032045,
			},
			{
0.0357255, -0.04683237, -0.012332648, 0.049163107, -0.021966571,
			},
			{
0.02205177, -0.047035094, -0.010198392, 0.022212315, 0.03498054,
			},
		},
		{
			{
-0.04647025, -0.031340353, 0.014399793, 0.023132984, 0.0064408295,
			},
			{
-0.014670242, -0.029198272, -0.0014922433, -0.0010627992, -0.03085193,
			},
			{
0.048437793, 0.005833663, 0.011435818, 0.016238589, -0.013451852,
			},
			{
0.04140484, -0.03401299, 0.030524034, 0.0004885793, 0.012547914,
			},
			{
0.0397623, 0.034166235, -0.043578684, -0.01805203, -0.03800704,
			},
		},
		{
			{
0.049068857, -0.0099904165, -0.04921146, 0.01963183, 0.016278151,
			},
			{
-0.014802396, 0.04247341, -0.040747873, 0.0081393495, -0.028999293,
			},
			{
-0.045517903, 0.030015219, -0.0496854, -0.033163525, 0.031899665,
			},
			{
0.014903981, 0.026245091, 0.018461417, 0.0066922903, 0.01529387,
			},
			{
0.022059027, 0.00665278, -0.042501867, -0.049672868, -0.016756684,
			},
		},
		{
			{
0.038949836, 0.026689615, -0.030313093, -0.035203774, -0.03887564,
			},
			{
0.024453495, 0.0066522174, 0.036665414, -0.03314951, -0.007659994,
			},
			{
0.032721464, -0.026027316, -0.028426731, -0.019923275, -0.030245198,
			},
			{
0.013806675, 0.016844261, 0.02804793, -0.049857046, 0.04527357,
			},
			{
-0.013641011, -0.035831362, -0.04274798, 0.043349456, -0.0054766648,
			},
		},
		{
			{
0.047132265, -0.00055693835, 0.027133483, 0.027525809, -0.0104923025,
			},
			{
0.00046402216, -0.04300316, -0.020228285, -0.047821563, -0.03505054,
			},
			{
0.0040838644, -0.0133858435, -0.005464632, 0.047703583, 0.01813187,
			},
			{
-0.047434587, 0.009619493, -0.022522956, -0.025915582, 0.021900166,
			},
			{
-0.0272511, -0.030084092, -0.047855794, 0.0372614, 0.036622774,
			},
		},
		{
			{
0.025630016, -0.027551396, -0.019454235, 0.022589352, 0.047379557,
			},
			{
0.024056915, 0.019348662, -0.022924079, 0.0010606162, 0.0019135587,
			},
			{
0.005173374, 0.02389117, 0.012023367, -0.024614215, 0.002647657,
			},
			{
0.032459218, 0.0073594823, -0.0040771067, 0.014766131, -0.031366512,
			},
			{
-0.008550156, -0.03974287, -0.03747666, -0.04409315, 0.004215747,
			},
		},
		{
			{
-0.036501594, -0.030201798, 0.016846899, 0.04348089, -0.008747656,
			},
			{
0.035254087, 0.008198954, 0.017582107, 0.03984223, -0.02325896,
			},
			{
-0.010587793, -0.02810585, -0.049016804, -0.03576072, -0.048763115,
			},
			{
0.013214711, -0.026580596, 0.03901403, 0.02181806, 0.01072092,
			},
			{
0.026972394, -0.039614074, 0.026120465, -0.04169472, -0.01806935,
			},
		},
		{
			{
0.03482121, -0.020703912, 0.034846243, 0.0067240708, 0.029414546,
			},
			{
0.03666162, -0.0018315203, -0.049755342, -0.02848724, -0.04194668,
			},
			{
0.02072971, -0.03723212, 0.0034422204, -0.014392771, -0.047336053,
			},
			{
-0.02895443, 0.004372608, -0.0012555607, 0.029676113, 0.008371137,
			},
			{
-0.030121583, -0.03664593, -0.03357803, -0.040705748, -0.009702105,
			},
		},
		{
			{
0.009038903, 0.0041259453, -0.019976992, -0.0037864558, 0.007459067,
			},
			{
-0.026486957, 0.005885482, 0.008963805, 0.042033587, 0.012065113,
			},
			{
0.031154517, -0.01905542, -0.0021624155, 0.031941626, -0.024009544,
			},
			{
-0.044858076, 0.03256279, -0.016537178, -0.016663928, 0.03648218,
			},
			{
0.049872804, 0.049976144, -0.035002194, -0.009482212, -0.009244829,
			},
		},
		{
			{
0.008067001, 0.02247877, -0.030956948, 0.028296921, -0.0066436715,
			},
			{
0.02051248, 0.035812985, 0.037416045, 0.017994989, -0.021137292,
			},
			{
0.019894052, -0.014369417, 0.022210393, 0.027839217, 0.025285084,
			},
			{
0.04190864, 0.004333861, -0.035830967, -0.02119798, 0.036226947,
			},
			{
-0.04256192, 0.03699654, 0.04288632, -0.04164484, 0.046268854,
			},
		},
	},
	{
		{
			{
-0.035627373, -0.015651166, -0.0028671734, 0.005653888, 0.018426988,
			},
			{
-0.0004664734, -0.007404186, 0.025395703, -0.008929677, 0.04134689,
			},
			{
-0.026013304, 0.045819204, -0.018476993, -0.040283322, 0.04769257,
			},
			{
0.016554434, -0.04341916, 0.026339512, -0.0014193282, 0.03598929,
			},
			{
0.049411956, -0.012892313, 0.035003107, 0.0059489235, -0.041078765,
			},
		},
		{
			{
-0.031863347, -0.0029991157, 0.023996357, -0.0015605204, 0.044765506,
			},
			{
0.018724281, -0.030701494, -0.034608763, -0.027239209, -0.000143487,
			},
			{
-0.01574893, -0.016655557, 0.012233011, -0.0026488192, -0.0072161555,
			},
			{
-0.043815404, 0.046843816, -0.015254468, 0.0046016797, -0.034404438,
			},
			{
-0.03049506, -0.019912673, -0.02931757, 0.015894461, 0.0018278584,
			},
		},
		{
			{
-0.045606375, -0.035170157, -0.03856968, -0.035128582, 0.029157046,
			},
			{
-0.031905137, 0.01679254, 0.023224715, 0.0202812, 0.01995502,
			},
			{
0.04041669, -0.014664967, -0.018472254, 0.003762491, 0.0054488406,
			},
			{
0.018764857, -0.023942053, 0.0006871633, -0.034012556, 0.019145023,
			},
			{
-0.0497452, 0.001970183, -0.02103622, -0.031195356, 0.008338548,
			},
		},
		{
			{
0.03674874, 0.018188108, -0.04574255, 0.011469625, -0.02364769,
			},
			{
0.03786647, -0.034134388, -0.015810497, 0.026420098, 0.025326554,
			},
			{
-0.046278723, 0.035658132, 0.017364014, -0.03074857, -0.01617108,
			},
			{
-0.023844242, 0.048479747, 0.005199097, -0.0025355406, -0.019726468,
			},
			{
-0.041322626, 0.020486835, -0.043756165, 0.0007025674, -0.040844273,
			},
		},
		{
			{
-0.043025743, -0.0023071282, 0.044124093, 0.015689585, 0.040634032,
			},
			{
0.016392823, -0.004375737, 0.02897283, -0.04215508, 0.006448932,
			},
			{
-0.043239392, -0.020284956, 0.036389474, -0.0065308213, -0.020914365,
			},
			{
0.04995868, 0.027289677, 0.012985725, 0.005002219, 0.0036683008,
			},
			{
-0.04748411, 0.007745087, -0.04311184, 0.0066956803, -0.035213374,
			},
		},
		{
			{
0.043512437, 0.02448171, 0.044148196, -0.013319362, -0.0062276125,
			},
			{
0.03569923, -0.009289753, 0.036596823, -0.017655205, -0.038554966,
			},
			{
-0.01815496, -0.04982115, 0.006653685, -0.039254438, -0.038277585,
			},
			{
-0.04948504, 0.041638758, 0.03389317, -0.026489383, 0.03833991,
			},
			{
-0.008888196, 0.0043124966, 0.00670287, 0.023154084, 0.047652546,
			},
		},
		{
			{
0.035284493, 0.025924254, -0.014215417, -0.04730711, 0.00516944,
			},
			{
-0.048313435, -0.025623268, -0.044185348, -0.016823959, 0.041604865,
			},
			{
0.01427735, -0.013632376, 0.02526683, 0.027027372, 0.036796574,
			},
			{
-0.012577444, 0.041976724, 0.000859607, 0.04265886, -0.012839586,
			},
			{
-0.041213132, 0.034204107, -0.033160217, -0.024127139, 0.0061572865,
			},
		},
		{
			{
0.003904827, 0.025458727, -0.020240545, 0.01985417, 0.04943278,
			},
			{
-0.030746276, 0.013233308, 0.047767263, 0.047914457, 0.036209296,
			},
			{
0.0016207807, 0.015756171, -0.0066347234, 0.012920167, -0.044879314,
			},
			{
-0.03161335, 0.022266407, -0.029781545, 0.0055111125, 0.042494606,
			},
			{
0.009884965, 0.02771901, -0.010291327, -0.04979242, -0.024558438,
			},
		},
		{
			{
-0.00856306, -0.032310754, 0.00030705333, -0.041675575, -0.043400884,
			},
			{
0.037794996, 0.037131194, 0.03437264, -0.014131915, 0.007042855,
			},
			{
-0.037537456, 0.03707317, -0.014787991, 0.035389308, 0.01888502,
			},
			{
0.008612949, -0.024844492, 0.023048256, 0.0049105287, 0.04070418,
			},
			{
0.03586891, -0.003674157, -0.04424574, 0.039193828, 0.018281523,
			},
		},
		{
			{
-0.0424185, 0.021467123, 0.04550198, -0.0033368357, -0.011358876,
			},
			{
-0.010294773, 0.046772514, -0.0037696846, -0.014831651, 0.00741734,
			},
			{
-0.032148995, 0.0015176348, -0.047480125, 0.030036535, -0.03238061,
			},
			{
0.049155895, 0.020857576, 0.013737928, 0.011325829, -0.04255119,
			},
			{
0.001355499, -0.019141782, 0.029378805, -0.015305627, -0.018348813,
			},
		},
		{
			{
0.013205197, -0.03568952, 0.04609749, -0.011023164, -0.004369013,
			},
			{
0.029556196, -0.017139573, -0.01650728, -0.01061511, -0.009513598,
			},
			{
-0.04193437, 0.02649701, 0.008787096, -0.0044337735, -0.029645402,
			},
			{
0.03533564, -0.027458971, -0.018013276, -0.048096117, -0.019031418,
			},
			{
-0.028761208, 0.047513854, 0.04780663, -0.043254714, -0.012495507,
			},
		},
		{
			{
-0.046260126, -0.032066643, -0.047164734, 0.030228678, 0.024177928,
			},
			{
0.031071257, 0.0049989894, 0.0201406, 0.029211137, 0.03010941,
			},
			{
-0.024267513, -0.04579339, 0.016823348, 0.045810256, 0.00988511,
			},
			{
0.016454574, -0.019865185, 0.02629042, -0.006219268, 0.014795605,
			},
			{
0.006244719, -0.009887945, 0.032281045, 0.012571473, -0.017150063,
			},
		},
		{
			{
-0.0029340498, 0.014812019, -0.046777792, 0.037385587, 0.011850119,
			},
			{
0.0333444, 0.029714901, -0.046741243, -0.048129525, -0.0016699657,
			},
			{
0.018769342, 0.042077225, 0.009826679, -0.007574659, -0.031878307,
			},
			{
-0.04571712, 0.049252506, -0.024161195, -0.009252273, 0.04518028,
			},
			{
0.034456436, -0.0435775, 0.019894514, 0.036528233, -0.009964544,
			},
		},
		{
			{
-0.048018385, 0.0388986, 0.028504003, 0.034139898, -0.010343432,
			},
			{
-0.016900666, -0.03356515, 0.008919872, -0.031798467, 0.0059092715,
			},
			{
0.039284367, 0.012511034, 0.02537145, -0.047308106, 0.034646664,
			},
			{
0.0016391054, 0.03844673, -0.04042823, -0.02949214, -0.03284867,
			},
			{
-0.0438944, -0.03285288, -0.04630053, -0.044962496, 0.008160286,
			},
		},
		{
			{
-0.0016296618, 0.04590455, 0.04108, 0.014195558, 0.047559027,
			},
			{
0.030140545, -0.03683574, -0.024177117, -0.013208844, -0.010239594,
			},
			{
0.0049881227, -0.0001729019, 0.03509895, -0.013657533, 0.034056533,
			},
			{
-0.03365447, 0.020299766, -0.0069439188, -0.009974223, 0.03315175,
			},
			{
-0.012234509, 0.002125334, -0.049300462, 0.013146605, -0.022691637,
			},
		},
		{
			{
-0.027563412, 0.019788686, 0.016570631, 0.007667817, -0.04128501,
			},
			{
-0.035593837, 0.012231272, 0.047098044, 0.042575892, -0.04844519,
			},
			{
0.03147987, -0.04672662, 0.010607339, -0.0037564114, -0.031598166,
			},
			{
-0.0030239336, -0.010283541, 0.045753304, -0.020918382, 0.0044088066,
			},
			{
-0.04937926, -0.011028994, 0.0117253065, -0.008931838, 0.029993478,
			},
		},
	},
	{
		{
			{
-0.041880585, 0.04355819, 0.0401578, 0.049327265, 0.012128614,
			},
			{
-0.0485395, 0.02276862, 0.00030196458, 0.01825266, -0.030620052,
			},
			{
0.025060173, 0.0051398166, 0.023594324, 0.03563093, -0.045641124,
			},
			{
-0.023403734, 0.006987639, -0.039888937, -0.045759417, 0.0076478124,
			},
			{
-0.0024634004, -0.021732802, 0.04370534, -0.011011202, 0.023504626,
			},
		},
		{
			{
0.045834716, 0.04823293, 0.04146256, -0.041086853, -0.03242004,
			},
			{
-0.029872274, -0.0043363757, 0.02492017, 0.03466699, -0.04630785,
			},
			{
0.026021685, 0.034125876, -0.040756393, -0.03513035, 0.004290156,
			},
			{
-0.02224275, -0.0012713298, -0.02155528, -0.044248905, -0.035156958,
			},
			{
0.028156493, 0.04194731, 0.019996207, 0.038062233, -0.03913551,
			},
		},
		{
			{
-0.025719643, 0.033470754, -0.03695044, 0.027179632, 0.004760403,
			},
			{
-0.041879784, 0.03957546, 0.0327118, -0.020186175, -0.042440172,
			},
			{
-0.03410842, -0.0008920729, 0.047826465, -0.046610374, -0.022109378,
			},
			{
-0.02254489, 0.008912206, -0.032925118, 0.02213772, 0.049118754,
			},
			{
-0.002323188, 0.008550562, 0.008392505, 0.00485776, -0.03393017,
			},
		},
		{
			{
0.04902486, -0.046872463, -0.042190343, -0.02895515, 0.006956231,
			},
			{
0.0029958002, -0.016352244, 0.003819108, -0.025832986, -0.041042697,
			},
			{
-0.043215115, 0.027725402, 0.031028155, -0.017368965, -0.0027568229,
			},
			{
-0.025133712, 0.012981456, -0.031082327, 0.03280313, -0.041901506,
			},
			{
-0.005437501, -0.027978063, -0.023448152, 0.02602673, 0.03972089,
			},
		},
		{
			{
-0.011791281, 0.031416822, -0.008478709, 0.017350588, -0.033725113,
			},
			{
-0.046697002, 0.0048517287, 0.029846076, 0.0169545, -0.042966943,
			},
			{
-0.04195751, -0.002421908, -0.024618639, -0.0022830851, -0.010839902,
			},
			{
-0.04753181, -0.04449287, -0.013808053, -0.013327517, -0.038416464,
			},
			{
0.037943278, 0.043473516, 0.009325545, -0.010105975, 0.0074795894,
			},
		},
		{
			{
0.010182768, 0.0029730871, 0.026071105, 0.030961912, -0.018786257,
			},
			{
-0.0077174082, -0.014530439, 0.0036739819, 0.023234863, -0.00874161,
			},
			{
0.003728252, -0.039676227, -0.0063124225, -0.028064674, -0.014268406,
			},
			{
0.007983226, 0.0022439435, 0.015797656, -0.03722, -0.03400892,
			},
			{
0.039092172, 0.011799961, 0.016239557, 0.012797046, 0.026326675,
			},
		},
		{
			{
0.04869264, 0.024307761, -0.004861407, 0.015085902, -0.013962835,
			},
			{
0.0029643662, 0.010678291, 0.011091106, -0.018446345, 0.04909956,
			},
			{
-0.039012473, -0.027682526, 0.045175064, 0.022259597, -0.043480385,
			},
			{
0.04047228, -0.00056215003, -0.0051872917, 0.02998193, -0.031117355,
			},
			{
0.028321575, -0.035033565, -0.0304002, 0.038933363, -0.006293107,
			},
		},
		{
			{
0.025470939, -0.022998435, 0.0080620535, 0.047140162, -0.013157021,
			},
			{
-0.0059356764, 0.0054444373, -0.030499924, -0.035695344, -0.0068298355,
			},
			{
0.030022223, 0.040709835, -0.013468616, -0.03159248, -0.048753053,
			},
			{
-0.042515855, 0.04163951, 0.03786191, 0.0009006858, -0.0007064827,
			},
			{
-0.046735674, -0.011117153, -0.01496185, -0.042201575, -0.032102406,
			},
		},
		{
			{
-0.017170005, 0.0146699585, 0.029063765, 0.0033384785, -0.0045062304,
			},
			{
0.03539974, 0.042672772, -0.04415336, -0.014879517, 0.012182523,
			},
			{
0.04571547, -0.013749063, -0.035093863, -0.0013225488, -0.029865235,
			},
			{
0.034252536, -0.0015688911, -0.00412295, 0.008570552, -0.022497833,
			},
			{
0.00058015063, -0.0034511685, -0.025170332, 0.016890202, 0.025492031,
			},
		},
		{
			{
-0.025728941, -0.010742057, 0.046973687, 0.040515546, -0.0314401,
			},
			{
-0.049994886, 0.025740687, -0.045895595, 0.03318299, -0.04240805,
			},
			{
0.04826733, -0.008588303, -0.008903526, 0.0010513254, 0.04815672,
			},
			{
0.023257207, -0.01774297, -0.0011796653, 0.040134463, -0.013621509,
			},
			{
-0.017457582, -0.035226636, 0.016095009, -0.002074886, -0.028546704,
			},
		},
		{
			{
0.047552746, 0.0391945, -0.022708673, 0.03661156, -0.021724343,
			},
			{
0.007882405, -0.046481546, -0.049222417, 0.034517433, 0.0072487406,
			},
			{
0.0160009, -0.025511581, 0.0389234, -0.012132637, -0.008225799,
			},
			{
-0.011691611, -0.015314173, 0.041249152, -0.034629613, 0.02274299,
			},
			{
0.018019233, -0.031336106, -0.037650704, 0.023156729, 0.029708032,
			},
		},
		{
			{
-0.026963627, 0.035498824, -0.049176455, -0.014000367, 0.009990972,
			},
			{
-0.012306534, 0.025643323, -0.009309202, 0.018784825, 0.039856117,
			},
			{
-0.027995503, 0.0219017, -0.026849592, 0.023387942, -0.032174006,
			},
			{
-0.03465597, -0.033060864, 0.037469257, 0.013265271, -0.030389864,
			},
			{
-0.007425241, 0.027830873, -0.042096365, -0.019193197, 0.03735992,
			},
		},
		{
			{
0.0012048855, 0.0025148913, -0.024170447, -0.029718757, 0.04206257,
			},
			{
-0.015680172, -0.022952765, -0.045473397, -0.004584275, 0.025542405,
			},
			{
0.035374854, -0.021905959, 0.04157057, -0.005444847, 0.035246845,
			},
			{
-0.007276289, -0.0030141696, 0.038011607, 0.037425544, 0.044998582,
			},
			{
0.048178557, 0.013531003, 0.032831762, 0.0363818, 0.017321158,
			},
		},
		{
			{
-0.018669855, 0.015548844, 0.023370419, -0.043371152, -0.018208615,
			},
			{
0.03097735, -0.013349671, -0.03598408, -0.009549476, 0.009036951,
			},
			{
-0.031408615, -0.041190386, -0.01807512, 0.017395314, -0.0491254,
			},
			{
-0.017525695, 0.03112204, 0.043152113, -0.032609094, -0.02191779,
			},
			{
-0.035255015, 0.044160653, -0.009568699, 0.02406082, 0.017572049,
			},
		},
		{
			{
-0.016825713, -0.043062814, -0.032769084, -0.0402338, 0.037502985,
			},
			{
-0.00826313, 0.03319959, -0.016191386, -0.028117014, 0.028892387,
			},
			{
0.01628286, 0.040587302, 0.012971368, -0.039788645, 0.037932876,
			},
			{
0.024070393, -0.0109568015, 0.031025987, 0.041602973, 0.018426325,
			},
			{
0.020072479, -0.013234131, -0.032745175, 0.018969957, 0.031013612,
			},
		},
		{
			{
0.025933426, 0.045312297, 0.03378221, -0.015855152, -0.025877053,
			},
			{
-0.013298672, -0.017575122, -0.016863596, 0.015605483, 0.020962302,
			},
			{
-0.021220494, -0.04505104, -0.04230256, -0.045541514, 0.04898871,
			},
			{
-0.043886393, 0.0030620024, -0.02058266, 0.04031154, 0.0015702359,
			},
			{
0.032667454, -0.012864925, -0.021746475, 0.0066762567, -0.0012089387,
			},
		},
	},
	{
		{
			{
0.01707125, -0.049819447, -0.015819054, 0.005481798, 0.026289027,
			},
			{
0.033260692, -0.0022884384, 0.02976619, 0.0170785, 0.027026031,
			},
			{
-0.03522096, 0.023050208, -0.038075525, 0.0039584935, 0.020915698,
			},
			{
0.047231775, 0.029769424, -0.04145112, -0.04672385, 0.043348137,
			},
			{
0.028504785, 0.008664507, -0.0018867329, -0.025788933, -0.012058686,
			},
		},
		{
			{
-0.037314326, 0.043332446, 0.036769208, 0.040196594, -0.007895,
			},
			{
0.0442386, -0.016946137, 0.031644482, 0.0050625205, -0.015447162,
			},
			{
-0.0015323572, 0.021694127, 0.001872696, 0.023455258, 0.031280536,
			},
			{
-0.041929305, 0.040718827, -0.005693145, -0.018842263, -0.037821166,
			},
			{
0.049842034, 0.010978412, 0.049951237, 0.047114667, 0.0046787076,
			},
		},
		{
			{
0.008233905, -0.008097183, -0.038549803, -0.024254763, -0.029683668,
			},
			{
-0.020127434, 0.024545204, -0.048194867, 0.035200898, 0.026011813,
			},
			{
0.048732866, -0.006991297, -0.0073741972, 0.0011500344, -0.047296256,
			},
			{
-0.026301527, 0.018183406, -0.009360142, 0.04315288, 0.02537134,
			},
			{
-0.0044848807, 0.030871067, 0.04599603, 0.038646165, 0.0031689182,
			},
		},
		{
			{
-0.04002776, -0.04220238, -0.0029228628, -0.041290354, -0.014502548,
			},
			{
0.014800411, -0.02347985, 0.039970566, 0.017413016, 0.025439423,
			},
			{
0.033289257, -0.049806893, 0.031751845, -0.044064827, -0.041951977,
			},
			{
0.0150922425, 0.0036846623, -0.019698894, 0.014948484, -0.041825168,
			},
			{
-0.020240014, -0.0011947565, -0.017008983, -0.038922288, -0.025187308,
			},
		},
		{
			{
0.029030059, -0.041814912, -0.011626434, -0.0038004033, -0.014197499,
			},
			{
-0.04411946, 0.049382787, -0.0065048635, 0.009673584, 0.0018091202,
			},
			{
0.02342878, -0.0017735474, 0.029297445, -0.008327283, -0.03953433,
			},
			{
-0.024975253, -0.044477373, -0.02988097, 0.032575224, -0.031397242,
			},
			{
0.042739276, -0.03726558, -0.007010389, -0.048937447, 0.03593125,
			},
		},
		{
			{
0.02273504, -0.02037788, 0.0011804402, -0.027712453, 0.04798725,
			},
			{
-0.021957709, -0.029481722, 0.04492945, 0.024006959, 0.03577053,
			},
			{
-0.025721652, 0.025674742, -0.040821064, -0.04779331, -0.027745074,
			},
			{
0.04182906, -0.007439416, -0.040790718, 0.011836331, -0.011286847,
			},
			{
-0.026560241, -0.024371339, 0.019400086, 0.015042607, -0.008904945,
			},
		},
		{
			{
0.024019796, 0.029554065, 0.04861604, 0.044964764, 0.011766929,
			},
			{
0.007542122, 0.044855203, 0.0066425726, 0.044745717, 0.018854316,
			},
			{
0.034589816, 0.019372378, -0.016044158, -0.0076472946, -0.0010758564,
			},
			{
0.026281703, -0.028566314, -0.04775537, 0.04972252, -0.032859642,
			},
			{
0.040932517, 0.02253053, 0.037440848, 0.0018316992, 0.035347167,
			},
		},
		{
			{
-0.033074573, 0.021555554, 0.034706566, 0.0050103664, -0.0256867,
			},
			{
0.01424161, -0.027885277, 0.02564117, -0.010801166, -0.025179936,
			},
			{
-0.018752271, 0.04011679, -0.04085473, -0.0420753, -0.039643474,
			},
			{
-0.0013958514, -0.032933414, -0.02097472, 0.012133211, 0.0010602698,
			},
			{
0.010079764, 0.018906754, -0.01687581, 0.042979468, -0.038050704,
			},
		},
		{
			{
-0.010743797, 0.048166398, -0.0065625682, -0.024859412, 0.018551584,
			},
			{
0.03848728, -0.034300603, -0.036998264, 0.020846803, 0.04991504,
			},
			{
-0.036242157, -0.009512376, 0.0035983026, -0.019911278, -0.028257763,
			},
			{
0.009956598, 0.030915711, -0.014915485, -0.017291378, -0.04019447,
			},
			{
0.040577207, 0.0054201707, -0.035428055, 0.034605216, 0.04717395,
			},
		},
		{
			{
0.037419055, 0.0014253184, -0.03829684, -0.013616033, -0.018979115,
			},
			{
-0.0073608942, 0.03441656, 0.030999366, 0.03237274, 0.0047669224,
			},
			{
-0.0030077472, -0.036511034, -0.042886134, 0.012248598, 0.015918065,
			},
			{
0.014706444, -0.015578382, 0.0288083, 0.030999545, 0.029593837,
			},
			{
0.030324545, 0.0020905323, 0.008208387, 0.026758645, -0.037704878,
			},
		},
		{
			{
0.028154071, -0.047934856, -0.011807062, -0.016394772, -0.01623524,
			},
			{
-0.026875628, 0.03973442, 0.010848552, -0.007064335, 0.00023798272,
			},
			{
-0.037216257, -0.0146091655, -0.0105091445, 0.03155871, -0.048473474,
			},
			{
-0.010137223, -0.007368993, 0.0069936626, 0.026342768, -0.049200144,
			},
			{
-0.0062564537, -0.031718172, 0.03128549, -1.0360032e-05, -0.026943672,
			},
		},
		{
			{
-2.6457012e-05, 0.0017688163, 0.035173874, 0.01789971, -0.023021763,
			},
			{
-0.027107364, 0.017252978, -0.014450531, -0.013294287, 0.002297271,
			},
			{
-0.020004136, 0.024185095, -0.042958725, -0.02787968, 0.011679281,
			},
			{
-0.031802475, -0.03726136, 0.031186063, 0.013528798, 0.034562033,
			},
			{
0.0010870621, 0.048465166, 0.027590428, 0.017895665, 0.04765607,
			},
		},
		{
			{
-0.046807777, 0.0026565008, 0.000986468, -0.02474304, 0.036701825,
			},
			{
-0.045210313, -0.043351717, -0.01159953, 0.011607397, 0.033593986,
			},
			{
0.0021924898, -0.045304667, 0.036737215, -0.04625013, -0.012165498,
			},
			{
-0.013910592, 0.035519723, -0.0026091523, -0.0012036376, -0.029877687,
			},
			{
-0.028469253, -0.019433964, 0.04004122, -0.027766336, -0.031844996,
			},
		},
		{
			{
-0.020376546, -0.030604023, 0.01427735, 0.023616213, 0.045379665,
			},
			{
-0.0052046254, -0.015339296, -0.024221707, -0.027668674, -0.0032828152,
			},
			{
0.035233166, 0.009935759, -0.0034850836, -0.03172391, -0.00025501102,
			},
			{
-0.032886736, -0.043714393, -0.024944097, -0.032408603, 0.025540847,
			},
			{
-0.0026200935, 0.044222128, -0.024397964, 0.013810795, -0.026654525,
			},
		},
		{
			{
0.018542062, 0.020253684, -0.0050431304, -0.0126418695, -0.0014922917,
			},
			{
-0.049207997, -0.039803542, 0.0044580325, 0.020364959, 0.04352564,
			},
			{
0.011893772, -0.029996281, 0.004013866, 0.03237393, -0.04100275,
			},
			{
0.032267753, -0.027093166, -0.004221827, -0.0120276585, 0.003169082,
			},
			{
0.022118684, -0.0312445, -0.027259339, -0.0022268184, -0.02384447,
			},
		},
		{
			{
-0.000429146, 0.04617102, -0.0022316985, 0.049239237, -0.022209514,
			},
			{
